tree
version=v4
num_class=1
num_tree_per_iteration=1
label_index=0
max_feature_idx=79
objective=binary sigmoid:1
feature_names=ROAD_CLASS DISTRICT TRAFFCTL VISIBILITY LIGHT RDSFCOND IMPACTYPE PEDESTRIAN CYCLIST AUTOMOBILE MOTORCYCLE TRUCK TRSN_CITY_VEH EMERG_VEH PASSENGER SPEEDING AG_DRIV REDLIGHT ALCOHOL DISABILITY NEIGHBOURHOOD_158 YEAR MONTH_sin MONTH_cos DOW_sin DOW_cos HOUR_sin HOUR_cos INVAGE_00to04 INVAGE_05to09 INVAGE_10to14 INVAGE_15to19 INVAGE_20to24 INVAGE_25to29 INVAGE_30to34 INVAGE_35to39 INVAGE_40to44 INVAGE_45to49 INVAGE_50to54 INVAGE_55to59 INVAGE_60to64 INVAGE_65to69 INVAGE_70to74 INVAGE_75to79 INVAGE_80to84 INVAGE_85to89 INVAGE_90to94 INVAGE_Over95 INVAGE_unknown NUMPERSONS MANOEUVER_ChangingLanes MANOEUVER_GoingAhead MANOEUVER_MakingUTurn MANOEUVER_Merging MANOEUVER_Other MANOEUVER_Overtaking MANOEUVER_Parked MANOEUVER_PullingAwayfromShoulderorCurb MANOEUVER_PullingOntoShoulderortowardCurb MANOEUVER_Reversing MANOEUVER_SlowingorStopping MANOEUVER_Stopped MANOEUVER_TurningLeft MANOEUVER_TurningRight MANOEUVER_Unknown DRIVACT_DisobeyedTrafficControl DRIVACT_DrivingProperly DRIVACT_ExceedingSpeedLimit DRIVACT_FailedtoYieldRightofWay DRIVACT_FollowingtooClose DRIVACT_ImproperLaneChange DRIVACT_ImproperPassing DRIVACT_ImproperTurn DRIVACT_Lostcontrol DRIVACT_Other DRIVACT_SpeedtooFastForCondition DRIVACT_SpeedtooSlow DRIVACT_WrongWayonOneWayRoad NEAREST_HOSPITAL DIST_TO_HOS
feature_infos=-1:4:5:0:3:1:2 -1:3:0:2:1 -1:0:4:3:2 -1:0:5:6:4:2:3:1 -1:4:1:0:7:6:5:2:3 -1:0:8:4:3:6:1:5:2 -1:4:9:2:6:5:0:1:8:3:7 [0:1] [0:1] [0:1] [0:1] [0:1] [0:1] none [0:1] [0:1] [0:1] [0:1] [0:1] [0:1] -1:139:152:124:123:145:74:125:93:26:3:137:156:89:46:36:90:148:92:57:129:0:35:116:127:138:104:33:60:73:1:5:14:128:54:20:72:53:85:134:70:71:83:98:10:95:21:106:157:42:52:99:107:27:131:140:29:32:100:118:28:65:66:151:69:135:13:39:45:38:136:37:6:8:77:82:2:75:86:108:143:147:49:79:117:7:41:97:132:144:12:17:19:23:24:96:110:149:15:22:34:55:141:114:121:126:58:62:94:115:11:63:105:122:81:103:146:153:154:9:50:51:64:91:113:40:119:155:18:31:84:88:133:16:44:59:76:142:150:4:25:47:48:67:101:120:109:130:56:61:80:43:102:112:68:30:78:87 [2006:2023] [-1:1] [-1:1] [-0.97492791218182362:0.97492791218182362] [-0.90096886790241903:1] [-1:1] [-1:1] [0:4] [0:3] [0:3] [0:6] [0:6] [0:8] [0:5] [0:4] [0:4] [0:4] [0:4] [0:5] [0:4] [0:3] [0:4] [0:4] [0:2] [0:2] [0:1] none [0:6] [1:19] [0:1] [0:1] [0:1] none [0:1] [0:1] [0:1] [0:1] none [0:1] [0:1] [0:1] [0:1] [0:1] [0:1] [0:1] [0:1] [0:1] [0:1] [0:1] [0:1] [0:1] [0:1] [0:1] [0:1] [0:1] none none -1:10:0:2:13:11:7:14:3:5:6:8:12:9:4 [13.057010585558601:10993.112038270105]
tree_sizes=1151 957 1448 1177 2200 1884 2433 2810 3224 3579 3673 3577 3698 3616 3628 3585 3673 3604 3679 3651 3599 3581 3641 3610 3587 3672 3666 3571 3718 3585 3608 3628 3687 3683 3644 3664 3677 3640 3600 3664 3618 3607 3574 3716 3648 3668 3689 3570 3666 3699 3582 3626 3759 3679 3585 3616 3665 3705 3710 3693 3687 3720 3587 3715 3662 3699 3670 3705 3717 3589 3667 3702 3724 3629 3679 3649 3715 3591 3666 3587 3685 3591 3590 3675 3614 3723 3578 3731 3699 3636 3657 3619 3691 3690 3617 3667 3615 3628 3597 3683 3708 3577 3553 3704 3667 3710 3676 3665 3644 3751 3638 3590 3543 3624 3663 3683 3719 3634 3687 3629 3632 3708 3670 3646 3649 3607 3592 3671 3553 3612 3631 3642 3611 3571 3573 3698 3575 3632 3701 3713 3687 3613 3576 3649 3660 3628 3661 3677 3687 3599 3701 3600 3578 3664 3605 3737 3658 3681 3584 3623 3731 3744 3585 3672 3638 3661 3570 3663 3672 3670 3617 3627 3670 3696 3721 3534 3626 3596 3686 3625 3671 3599 3653 3611 3578 3565 3686 3617 3648 3617 3597 3566 3649 3664 3623 3645 3607 3663 3683 3617 3659 3608 3674 3622 3653 3619 3705 3707 3607 3700 3635 3687 3547 3618 3612 3628 3553 3700 3544 3586 3559 3621 3598 3626 3642 3628 3654 3571 3665 3626 3642 3625 3650 3603 3685 3638 3582 3610 3570 3662 3627 3683 3599 3645 3579 3652 3620 3705 3591 3609 3651 3553 3648 3790 3645 3599 3595 3661 3571 3594 3743 3644 3597 3643 3677 3685 3652 3740 3559 3736 3744 3807 3643 3629 3647 3594 3625 3691 3581 3680 3662 3691 3721 3585 3611 3670 3527 3661 3587 3642 3621 3657 3630 3633 3609 3633 3603 3674 3643 3608 3699 3623 3613 3612 3633 3699 3676 3689 3683 3655 3712 3710 3689 3634 3628 3663 3585 3566 3666 3546 3655 3674 3589 3657 3662 3709 3707 3675 3653 3653 3617 3746 3605 3640 3654 3620 3746 3649 3664 3661 3598 3614 3665 3593 3615 3581 3619 3693 3625 3668 3685 3597 3665 3714 3705 3641 3758 3656 3671 3606 3633 3612 3691 3622 3672 3682 3635 3676 3693 3647 3703 3649 3663 3705 3670 3748 3669 3624 3723 3591 3697 3639 3657 3718 3634 3686

Tree=0
num_leaves=9
num_cat=3
split_feature=8 69 20 64 54 20 20 52
split_gain=277.698 309.598 193.618 50.9003 24.2953 10.1037 4.06793 3.22023
threshold=1.0000000180025095e-35 1.0000000180025095e-35 0 1.0000000180025095e-35 1.0000000180025095e-35 1 2 1.0000000180025095e-35
decision_type=2 2 9 2 2 9 9 2
left_child=1 2 6 4 7 -2 -1 -4
right_child=5 -3 3 -5 -6 -7 -8 -9
leaf_value=-1.8279838794118524 -1.8276701751460549 -1.8385064392199664 -1.5269617231596699 -1.812935986511375 -1.8080821693886369 -1.7670755493282468 -1.7981148529405293 -1.8065076817352574
leaf_weight=16.652776002883911 16.293363571166992 22.283570766448975 902.24500775337219 11.860610246658323 12.339826822280882 85.899571180343628 32.347118854522705 11.021981239318846
leaf_count=129 126 181 4056 79 78 542 210 67
internal_value=-1.56617 -1.55123 -1.5439 -1.53591 -1.5307 -1.77221 -1.80533 -1.52859
internal_weight=1110.94 1008.75 986.467 937.467 925.607 102.193 48.9999 913.267
internal_count=5468 4800 4619 4280 4201 668 339 4123
cat_boundaries=0 5 10 15
cat_threshold=2184 35655744 128 16912384 2101248 0 16 0 268435456 25166528 0 64 128 4096 2101248
is_linear=0
shrinkage=1


Tree=1
num_leaves=7
num_cat=2
split_feature=69 20 8 30 64 20
split_gain=177.981 133.868 119.828 20.4565 16.3068 5.87206
threshold=1.0000000180025095e-35 0 1.0000000180025095e-35 1.0000000180025095e-35 1.0000000180025095e-35 1
decision_type=2 9 2 2 2 9
left_child=1 5 3 4 -3 -1
right_child=-2 2 -4 -5 -6 -7
leaf_value=-0.0079879767288729472 -0.012716520307950984 0.22381363374136079 0.045437978154261933 0.024194698371910829 0.0095400863070514343 0.024699128105829714
leaf_weight=19.073274292051792 23.880437724292278 1097.229018047452 92.855126440525055 28.723922774195671 11.580578342080114 43.337667420506477
leaf_count=145 191 4081 585 143 76 247
internal_value=0.198516 0.203005 0.209018 0.219663 0.22248 0.0159523
internal_weight=1316.68 1292.8 1230.39 1137.53 1108.81 62.4109
internal_count=5468 5277 4885 4300 4157 392
cat_boundaries=0 5 10
cat_threshold=2048 36928 32896 1073876992 2167328 0 64 0 1073745920 2101248
is_linear=0
shrinkage=0.094037


Tree=2
num_leaves=11
num_cat=5
split_feature=6 20 20 20 69 20 21 60 54 21
split_gain=138.796 231.541 102.857 49.8929 35.0996 33.8188 15.7196 15.3409 9.24442 1.29958
threshold=0 1 2 3 1.0000000180025095e-35 4 2011.5000000000002 1.0000000180025095e-35 1.0000000180025095e-35 2009.5000000000002
decision_type=9 9 9 9 2 9 2 2 2 2
left_child=1 4 6 -2 -1 -4 9 8 -5 -3
right_child=3 2 5 7 -6 -7 -8 -9 -10 -11
leaf_value=0.14923768165209589 0.024133134926418425 0.0059871177418823916 0.016061224138807693 0.19372456568910651 -0.0063926437066087619 -0.053295736185433575 0.070094420217650708 0.010082957742059038 0.01132162412661232 -0.008914645272267388
leaf_weight=155.82559027522802 62.586384460330009 18.813458926975731 38.826658368110657 990.84037231653929 5.754229709506034 107.24447901546955 65.115892887115479 14.655104853212832 14.326039396226404 7.759771801531314
leaf_count=510 306 107 200 3091 49 744 264 64 79 54
internal_value=0.161609 0.0763493 0.00559836 0.1824 0.137951 -0.0358376 0.0557049 0.189029 0.192295 -0.00190667
internal_weight=1481.75 399.34 237.76 1082.41 161.58 146.071 91.6891 1019.82 1005.17 26.5732
internal_count=5468 1928 1369 3540 559 944 425 3234 3170 161
cat_boundaries=0 1 6 11 16 21
cat_threshold=812 336606240 2485141898 2214724641 2285897730 268568834 151519881 8397861 287345282 1073742600 587236400 8388616 35659776 67141761 75497984 32768 16384 37753344 1577280 536870912 1048576
is_linear=0
shrinkage=0.094037


Tree=3
num_leaves=9
num_cat=2
split_feature=20 69 8 20 21 21 21 21
split_gain=107.511 85.6485 17.7356 14.0946 4.65744 2.02697 1.45613 1.0425
threshold=0 1.0000000180025095e-35 1.0000000180025095e-35 1 2008.5000000000002 2008.5000000000002 2014.5000000000002 2007.5000000000002
decision_type=9 2 2 9 2 2 2 2
left_child=3 2 -2 5 7 -1 -3 -5
right_child=1 6 -4 4 -6 -7 -8 -9
leaf_value=0.0054889127650339688 0.15406232281609336 -0.013965529272670058 0.039305190621404043 0.0077516971749313967 0.050062392301154425 -0.015922832926591784 0.004419485044950178 -0.0055916809728611882
leaf_weight=5.3018693700432804 1311.5875819548965 13.576486445963384 88.024003945291042 21.292220011353493 136.10420564562082 15.359428957104681 6.3405197933316222 9.5861637517809886
leaf_count=30 3881 116 513 108 603 118 43 56
internal_value=0.137036 0.146092 0.14972 0.0364424 0.0436139 -0.00958379 -0.00929143 0.00252359
internal_weight=1607.17 1419.53 1399.61 187.644 166.983 20.6613 19.917 30.8784
internal_count=5468 4553 4394 915 767 148 159 164
cat_boundaries=0 5 10
cat_threshold=545261704 1174798656 1073774720 1141264896 137695776 0 64 0 1073745920 2101248
is_linear=0
shrinkage=0.094037


Tree=4
num_leaves=18
num_cat=7
split_feature=69 20 21 20 20 6 30 20 20 8 21 6 21 61 21 21 8
split_gain=78.0811 59.4781 51.1908 104.796 47.9547 19.5745 12.6533 6.55436 4.69534 2.31003 1.94875 1.57993 1.30088 0.483762 0.0387596 0.0228811 0.00622903
threshold=1.0000000180025095e-35 0 2012.5000000000002 1 2 3 1.0000000180025095e-35 4 5 1.0000000180025095e-35 2008.5000000000002 6 2014.5000000000002 1.0000000180025095e-35 2008.5000000000002 2006.5000000000002 1.0000000180025095e-35
decision_type=2 9 2 9 9 9 2 9 9 2 2 9 2 2 2 2 2
left_child=1 8 3 7 -4 -5 9 16 10 -7 -1 -9 -2 -14 15 -10 -3
right_child=12 2 4 5 -6 6 -8 11 14 -11 -12 -13 13 -15 -16 -17 -18
leaf_value=0.0054596832808351051 -0.016198972548297511 -0.016762093514835669 0.0034683254871871183 0.013525507922886754 0.14591175317314403 0.10985227884176423 -0.00025944873346196652 0.015680561530948395 0.0014939335023947049 0.012218930611317959 -0.015419923825339603 -0.0025993014612891454 0.0065785574294056287 -0.0033788601696284502 0.019153646029227728 -0.00068643375801466934 -0.00045377916050583596
leaf_weight=5.3217214122414616 16.152553468942646 44.444683864712715 36.96756586432457 71.688981875777245 964.65410587191582 385.62201927602291 9.4933326542377454 48.240500241518021 3.6161675006151182 27.149059094488621 14.831738732755182 29.60574759542942 4.4919238388538352 2.9501229673624039 40.564588770270348 5.2923355400562286 5.4690778553485861
leaf_count=30 139 201 162 293 2603 1073 45 188 19 159 115 130 27 25 194 28 37
internal_value=0.117299 0.119657 0.122922 0.0783787 0.142756 0.0943951 0.102813 -0.00138458 0.00873655 0.106834 -0.00913737 0.0111993 -0.0124411 0.00315725 0.0172685 0.000753856 -0.0153489
internal_weight=1716.56 1692.96 1623.34 621.713 1001.62 493.953 422.264 127.76 69.6266 412.771 20.1535 77.8462 23.5946 7.44205 49.4731 8.9085 49.9138
internal_count=5468 5277 4891 2126 2765 1570 1277 556 386 1232 145 318 191 52 241 47 238
cat_boundaries=0 5 10 15 16 21 26 27
cat_threshold=2048 67244096 128 1073745920 2167328 671776 310403092 2751987776 805831812 285474824 536870912 33554432 0 1048577 1082368 800 0 268460048 2214592512 536871936 16777216 0 64 0 1073745920 2101248 22
is_linear=0
shrinkage=0.094037


Tree=5
num_leaves=15
num_cat=8
split_feature=6 20 20 20 20 62 20 6 21 21 21 21 20 21
split_gain=75.1316 179.855 75.8975 53.1867 45.01 32.6423 10.5146 10.2877 5.17063 2.67044 1.64921 0.501839 0.368938 0.276076
threshold=0 1 2 3 4 1.0000000180025095e-35 5 6 2013.5000000000002 2006.5000000000002 2017.5000000000002 2008.5000000000002 7 2020.5000000000002
decision_type=9 9 9 9 9 2 9 9 2 2 2 2 9 2
left_child=3 -2 9 12 7 -5 -6 8 -4 -3 -10 -9 -1 -12
right_child=1 2 4 5 6 -7 -8 11 10 -11 13 -13 -14 -15
leaf_value=0.00026089504892620155 0.10551229348912253 -0.0010063289065891999 -0.0192226517906691 0.13447308609189745 0.005128734879343678 0.049779056850500984 -0.056108786846064518 0.00016170028464852001 0.014390267738664994 0.051406730062248836 -0.0062548312575013134 0.034375143238711554 0.01688535596937861 0.0018467063264740657
leaf_weight=26.601352870464325 223.97062604129314 5.3294764682650557 28.135137319564819 950.55582594871521 18.209046497941017 196.91311226785183 107.52113230526447 4.8101735562086096 18.231997422873974 112.40841472148895 9.4732774496078509 34.573357634246349 57.779861614108086 7.3165735751390448
leaf_count=112 623 26 157 2273 87 601 675 30 59 390 47 149 211 28
internal_value=0.10255 0.0548712 0.00550618 0.117949 -0.0240636 0.123725 -0.048917 0.0156169 -0.00711309 0.0473776 0.00893699 0.0308903 0.0146581 -0.00414876
internal_weight=1801.83 569.979 346.009 1231.85 228.271 1147.47 125.73 102.541 63.157 117.738 35.0218 39.3835 84.3812 16.7899
internal_count=5468 2271 1648 3197 1232 2874 762 470 291 416 134 179 323 75
cat_boundaries=0 1 6 11 16 21 26 27 32
cat_threshold=82 335556640 2485125515 2214724645 2285897730 538085632 152700424 4472832 154698496 1073742600 301989906 8 270540800 67141920 8407040 1081344 16515 41952804 268437634 268960772 151004193 0 4096 4160 1048576 512 801 0 2097152 67108864 0 1081344
is_linear=0
shrinkage=0.094037


Tree=6
num_leaves=20
num_cat=9
split_feature=20 69 6 20 20 20 20 68 20 19 6 62 54 21 21 20 21 21 21
split_gain=76.7831 46.6827 14.5302 104.537 47.3077 22.0018 12.1305 9.27829 13.5495 7.69926 7.04676 5.52599 5.29203 4.40631 3.42397 1.55558 1.40394 0.680922 0.456412
threshold=0 1.0000000180025095e-35 1 2 3 4 5 1.0000000180025095e-35 6 1.0000000180025095e-35 7 1.0000000180025095e-35 1.0000000180025095e-35 2014.5000000000002 2006.5000000000002 8 2014.5000000000002 2017.5000000000002 2021.5000000000002
decision_type=9 2 9 9 9 9 9 2 9 2 9 2 2 2 2 9 2 2 2
left_child=7 2 6 -4 -5 -6 -2 8 18 12 13 -9 -8 -10 -12 -7 -3 -13 -1
right_child=1 16 3 4 5 15 9 11 10 -11 14 17 -14 -15 -16 -17 -18 -19 -20
leaf_value=-0.012536345780075822 0.011087268001103753 -0.013827130905345387 0.090615367238973371 0.038658631115927863 0.013751863872478558 -0.00018801409744096225 0.11625216967503664 0.011661090907221705 -0.014445238683187022 0.012303637007293849 -0.0016574232856819066 -0.019664105044791252 0.0072516377545540217 0.012386208407188348 0.049137214227934538 -0.0443161322816698 0.0042947615156740133 0.00083100672319901328 0.0014847384867232383
leaf_weight=21.356401525437835 46.588482543826103 13.414864398539068 185.9906804561615 73.496153965592384 42.310144022107124 18.343641802668571 1121.1477532684803 24.577796928584576 17.318541817367077 30.044981732964516 6.2122182771563521 17.846345305442814 16.706397190690041 15.883528791368006 116.20926308631897 81.990037687122822 6.4069352820515624 8.2179704904556257 3.5496262088417998
leaf_count=129 155 115 476 232 165 85 2528 96 94 90 37 109 71 54 442 495 42 35 18
internal_value=0.0910826 0.0981632 0.100483 0.0529593 0.00186668 -0.0253141 0.110123 0.0234996 0.0313602 0.112864 0.0381436 -0.00503193 0.115315 -0.00179671 0.0448646 -0.0404144 -0.00925587 -0.0175921 -0.0100815
internal_weight=1867.61 1636.44 1616.62 402.131 216.14 142.644 1214.49 231.172 180.53 1167.9 155.624 50.6421 1137.85 33.2021 122.421 100.334 19.8218 26.0643 24.906
internal_count=5468 4454 4297 1453 977 745 2844 1014 774 2689 627 240 2599 148 479 580 157 144 147
cat_boundaries=0 5 6 11 16 21 26 31 32 36
cat_threshold=545261768 1176895808 1073774720 1074156032 18944672 242 487600160 2147483659 2098213 2285895682 806488066 132608 12599428 2232550144 524296 41232 16385 9728 402655296 3076 1024 1048576 0 352 0 1081344 0 1073741888 0 4096 4608 323 0 268435456 524288 537919488
is_linear=0
shrinkage=0.094037


Tree=7
num_leaves=24
num_cat=6
split_feature=21 20 20 6 79 60 20 30 62 62 79 79 6 79 79 79 79 20 79 30 79 79 79
split_gain=61.5171 85.3147 52.8218 43.1122 28.4843 19.0485 5.66251 5.62961 4.43057 4.35979 3.54246 3.42725 2.25007 2.2135 2.11904 1.94405 1.45948 0.98796 0.602163 0.314556 0.250433 0.14957 0.123115
threshold=2012.5000000000002 0 1 2 779.86140627355792 1.0000000180025095e-35 3 1.0000000180025095e-35 1.0000000180025095e-35 1.0000000180025095e-35 3390.7522608569129 2604.8805937661682 4 1439.9215388176383 5878.629892180209 6290.555649169256 279.57210281997692 5 7387.1845234258808 1.0000000180025095e-35 2774.4604499962884 2232.5235338621428 5095.6188593808338
decision_type=2 9 9 9 2 2 9 2 2 2 2 2 9 2 2 2 2 9 2 2 2 2 2
left_child=1 6 8 10 16 19 18 -6 17 12 11 13 -8 -3 -12 -16 -5 -2 -1 -4 21 -14 -22
right_child=2 3 5 4 7 -7 9 -9 -10 -11 14 -13 20 -15 15 -17 -18 -19 -20 -21 22 -23 -24
leaf_value=-0.020627104234494539 0.00042611558818735757 0.0066738160678717394 0.10650082526932769 0.004548931385115502 0.0798153857354649 0.0019305939739905076 0.019389239394350468 0.0015729615282723342 -0.0050889228766185885 -0.01054422611764798 -0.017013337423626117 0.019004003469419051 -0.0017743208924691591 -0.013693344150621841 0.011842152049240291 -0.0070363165201804152 -0.014015090954260663 0.025053675806627877 0.00052186413434728777 0.012606770248545528 -0.006397153546565915 0.0037393130573358077 0.00065328182033015008
leaf_weight=72.856553390622139 30.122907288372517 12.165076352655889 1013.0460541024804 4.7518194466829291 459.52306210249662 19.51740725338459 37.901760995388031 12.061326764523981 31.012483827769756 18.008293181657791 25.182087421417236 18.635235622525215 5.8095658570528048 11.455012507736681 8.2138538062572497 10.387447647750376 10.581368938088415 61.106856808066368 8.0235650911927205 26.924818053841591 9.3322763517498988 6.0490456521511078 8.145348481833933
leaf_count=324 125 48 2400 11 1249 78 112 50 135 89 140 59 29 68 23 56 53 197 29 89 45 26 33
internal_value=0.0813777 0.04916 0.0965109 0.0637693 0.0733309 0.102805 -0.00815593 0.0783988 0.015687 0.00620934 -0.000777399 0.0102893 0.0145887 -0.00624136 -0.0112498 0.0042173 -0.00929447 0.0226127 -0.0183108 0.105295 -0.00296865 0.00185938 -0.00532439
internal_weight=1920.81 739.083 1181.73 572.956 486.918 1059.49 166.126 471.584 122.242 85.2463 86.0387 42.2553 67.238 23.6201 43.7834 18.6013 15.3332 91.2298 80.8801 1039.97 29.3362 11.8586 17.4776
internal_count=5468 2444 3024 1757 1363 2567 687 1299 457 334 394 175 245 116 219 79 64 322 353 2489 133 55 78
cat_boundaries=0 5 10 11 16 17 22
cat_threshold=671785 310665244 2785017920 805831812 285474824 540049676 35651584 8576 1048576 1083328 800 0 268451856 2214592512 805307396 285212680 18 536870924 0 256 1048576 1049088
is_linear=0
shrinkage=0.094037


Tree=8
num_leaves=27
num_cat=11
split_feature=20 69 62 20 30 20 21 20 20 60 20 6 20 21 68 21 68 21 6 20 79 79 52 6 79 79
split_gain=62.3082 36.0924 21.6468 61.7678 40.8584 21.3163 18.866 20.2111 15.8925 13.731 7.71459 7.37312 2.5366 3.28848 2.2454 1.61603 1.30159 1.2668 1.22524 1.16284 0.971518 0.679503 0.592586 0.545799 0.152235 0.0042614
threshold=0 1.0000000180025095e-35 1.0000000180025095e-35 1 1.0000000180025095e-35 2 2013.5000000000002 3 4 1.0000000180025095e-35 5 6 7 2011.5000000000002 1.0000000180025095e-35 2010.5000000000002 1.0000000180025095e-35 2014.5000000000002 8 9 3857.3124829307203 4479.0253319439953 1.0000000180025095e-35 10 1511.2251478981345 697.76547864358884
decision_type=9 2 2 9 2 9 2 9 9 2 9 9 9 2 2 2 2 2 9 9 2 2 2 9 2 2
left_child=6 2 4 -4 5 18 7 15 -5 22 14 16 13 25 -10 20 -8 -3 -2 -12 -1 24 -7 -21 -17 -9
right_child=1 17 3 8 -6 9 11 12 10 -11 19 -13 -14 -15 -16 21 -18 -19 -20 23 -22 -23 -24 -25 -26 -27
leaf_value=0.027913385492852737 0.022060886033114676 -0.013983578513515128 0.076516871888432147 0.025795014625297031 -0.0063480309644047446 0.097923008788171326 0.0049025634574965697 -0.00025141516262484664 0.018756510278305414 0.0060568427973587292 0.00056276093741079551 0.040097602728566828 -0.033662283430474275 0.012107956023263583 -0.0044984412447145019 0.00086967368336166116 -0.010207157546706785 0.0037617134419532547 0.00079138558599895262 -0.0031092903976225939 -0.00038114817513089963 0.0050252403048279175 0.0072311949491382244 -0.025604429975032681 -0.0071394774890335827 -0.011376407271443723
leaf_weight=23.882912501692772 51.507622286677361 13.592666357755663 145.36397895216942 92.771599151194096 27.09598995745182 1126.8389231860638 22.816062599420547 4.5748759433627191 17.618269473314285 27.603234887123108 28.665638238191605 101.58347208797932 37.362324766814709 12.198984399437903 11.652633637189867 3.9703035205602628 8.4113548919558543 6.7835403308272353 48.62576899677515 58.051070228219032 9.1214231029152852 4.7754168808460227 15.987528324127195 47.639716297388077 5.5969314724206924 14.50548944622278
leaf_count=81 144 117 318 272 111 2494 105 20 43 90 106 309 220 44 45 19 51 42 182 187 40 14 61 239 32 82
internal_value=0.0727586 0.0789409 0.0808972 0.0431284 0.0889537 0.0912781 0.0174086 -0.00767471 0.00658334 0.0949844 -0.0100387 0.0342568 -0.0273482 0.00019332 0.0121141 0.0205583 -0.00347075 -0.00983347 0.0173492 -0.0180136 0.0255715 -0.00119443 0.0972889 -0.0208517 -0.00603911 -0.0111274
internal_weight=1968.6 1719.8 1699.42 401.763 1297.66 1270.56 248.8 115.989 256.399 1170.43 163.627 132.811 68.6417 31.2793 29.2709 47.347 31.2274 20.3762 100.133 134.356 33.0043 14.3427 1142.83 105.691 9.56723 19.0804
internal_count=5468 4451 4292 1210 3082 2971 1017 552 892 2645 620 465 366 146 88 186 156 159 326 532 121 65 2555 426 51 102
cat_boundaries=0 5 10 15 20 25 30 31 36 37 42 43
cat_threshold=545261760 1310888272 1073774720 1141264896 18944544 420504616 1033 16777761 2151677952 872546320 1056776 8232 800 2097152 32832 545259648 131072 1073741824 1073741824 2163232 69206784 25120 605030404 0 8390978 131072 0 1280 526348 33595392 517 0 35651840 128 0 16777216 16 2 4194304 273154048 536870912 1048576 16
is_linear=0
shrinkage=0.094037


Tree=9
num_leaves=31
num_cat=7
split_feature=20 6 20 20 20 64 62 30 21 19 79 79 69 6 79 21 79 79 79 79 79 79 79 21 79 79 20 79 79 21
split_gain=63.2172 80.4801 107.781 38.8587 22.532 22.3392 14.0243 24.5159 18.4112 18.5971 7.8089 7.61082 4.03248 4.3153 2.54366 2.47647 1.71477 1.51935 1.4554 0.934684 1.07108 1.66308 0.903126 0.881659 0.606062 0.688791 0.582305 0.442189 1.0013 0.203171
threshold=0 1 2 3 4 1.0000000180025095e-35 1.0000000180025095e-35 1.0000000180025095e-35 2009.5000000000002 1.0000000180025095e-35 1167.1052808031675 5997.5527056625588 1.0000000180025095e-35 5 1132.8158342062964 2021.5000000000002 8060.5599305799124 7632.8103551456597 155.09682318283015 6604.025433350821 2360.5492593559325 2218.3912325617862 3857.3124829307203 2008.5000000000002 1439.9215388176383 839.49865296803193 6 5966.1638334278841 9356.0464619183349 2010.5000000000002
decision_type=9 9 9 9 9 2 2 2 2 2 2 2 2 9 2 2 2 2 2 2 2 2 2 2 2 2 9 2 2 2
left_child=-1 4 12 11 19 6 7 8 10 18 -6 14 13 22 -4 24 -15 -13 -10 20 21 -2 -3 -22 25 -8 -16 -26 -29 -14
right_child=1 2 3 -5 5 -7 15 -9 9 -11 -12 17 29 16 26 -17 -18 -19 -20 -21 23 -23 -24 -25 27 -27 -28 28 -30 -31
leaf_value=0.093784214836752436 -0.0068425518679706082 0.0079528961012181772 -0.0039809172872080243 -0.052537293912635168 -0.0085853837296398124 -0.010937058876336938 -0.0050093049946894541 -0.0079862722496063659 0.00068585743539754376 -0.0047501166907741327 0.030307929516418055 -0.016933412136639316 -0.0040724066325964663 0.060501936742446867 0.00080443862150767864 -0.0034639916353805681 0.001907202457594005 0.0033457162317699352 0.085898523279127739 0.0052704334785247985 0.0024913547825542379 0.010960767712946908 -0.004420961153928705 -0.013859864253690681 0.026636075272322497 0.0059881240030103125 0.025301821126470361 -0.005293586691591563 0.0079559686027605592 0.0022994085238264429
leaf_weight=602.79661217331886 5.4901675134897214 17.579077675938606 7.8078103065490714 119.24161564558744 14.144620358943937 8.8060616403818113 7.5589629411697414 15.169294849038122 3.2721450924873343 11.080408543348311 146.36235810816288 14.004999302327635 3.5734266340732566 146.11929249763489 27.153656497597698 10.275119826197622 10.758281499147413 10.368766769766806 582.25802716612816 8.6386140882968885 6.8437883406877544 4.7739400416612625 18.981740012764931 20.855690389871597 95.199924990534782 11.542681887745855 48.143363751471043 15.609631121158602 6.1809151023626319 3.0793319121003151
leaf_count=1246 32 50 42 724 54 48 30 67 9 39 396 77 30 408 139 36 35 39 1192 27 26 9 65 98 268 34 164 54 12 18
internal_value=0.0657511 0.0476941 0.00991755 -0.0291237 0.0617332 0.0649101 0.0672106 0.0728407 0.0751513 0.0834915 0.0249985 0.009799 0.0490448 0.0525026 0.0200217 0.0208334 0.0564124 -0.0124835 0.0855804 -0.00264954 -0.00711201 0.00384974 0.0027496 -0.0110108 0.0233261 0.00109163 0.023332 0.0248751 0.00185998 -0.00172926
internal_weight=2003.67 1400.87 426.811 226.72 974.062 927.46 918.654 772.287 757.118 596.611 160.507 107.479 200.091 193.438 83.1048 146.367 156.878 24.3738 585.53 46.6022 37.9636 10.2641 36.5608 27.6995 136.092 19.1016 75.297 116.99 21.7905 6.65276
internal_count=5468 4222 1791 1185 2431 2239 2191 1757 1690 1240 450 461 606 558 345 434 443 116 1201 192 165 41 115 124 398 64 303 334 66 48
cat_boundaries=0 5 6 11 16 21 22 27
cat_threshold=486691330 3083 137494533 2285895946 570573058 82 1582120 2489598368 2231928096 1073744384 269518864 129 41955844 268438146 270009348 151004193 8 2097152 67141632 8388608 1081344 257 1 33554432 128 268435456 1024
is_linear=0
shrinkage=0.094037


Tree=10
num_leaves=31
num_cat=12
split_feature=20 21 20 20 20 21 20 79 20 60 2 33 79 6 20 79 6 68 79 79 79 79 20 33 79 21 20 79 79 61
split_gain=53.5179 30.7434 73.6863 37.1794 29.4806 15.1324 17.7682 14.685 9.70107 8.88046 6.02869 8.92991 8.01554 4.31572 4.99588 4.87767 3.48143 2.71322 2.54917 2.53208 2.47507 1.59927 1.21691 1.1032 0.813853 0.813643 0.587631 0.378959 0.323615 0.229539
threshold=0 2012.5000000000002 1 2 3 2018.5000000000002 4 779.86140627355792 5 1.0000000180025095e-35 6 1.0000000180025095e-35 2629.6780266481805 7 8 7387.1845234258808 9 1.0000000180025095e-35 5162.5753826283626 1493.3055221021061 5546.1030935554891 2653.9461270509059 10 1.0000000180025095e-35 7301.8683612385075 2022.5000000000002 11 5310.2494967070534 878.15923290641524 1.0000000180025095e-35
decision_type=9 2 9 9 9 2 9 2 9 2 9 2 2 9 9 2 9 2 2 2 2 2 9 2 2 2 9 2 2 2
left_child=5 2 -2 7 22 6 10 -4 16 -6 19 12 -12 20 27 -16 21 29 -18 -1 -10 -5 -3 -21 26 -7 28 -15 -8 -9
right_child=1 4 3 8 9 25 24 17 13 -11 11 -13 -14 14 15 -17 18 -19 -20 23 -22 -23 -24 -25 -26 -27 -28 -29 -30 -31
leaf_value=0.0077435463913165109 0.073332605561030814 -0.0024771814267024123 -0.011883360302132863 -0.012934034995402343 0.083201226098046518 0.035324933754712351 0.0028408840801344057 0.046806988848707064 0.011525040791126991 0.0025810471766184867 -0.006727033792586757 -0.0095228455346197255 0.041518125530662114 0.0063875589057760425 -0.038934844303701394 0.0030624537715921852 0.02144600692423497 0.0040558323664647514 -0.0046484298866110267 -0.016577201553525028 -0.0090238538661871585 0.0041971887165198575 0.012476112370680562 0.00253475102916665 0.00084756159112312098 0.00090309436351614385 -0.029458779788790024 -0.0025218541788243009 -0.0046381593802136706 0.0022711099120623153
leaf_weight=7.1550681889057151 230.9340213239193 33.874736674129963 12.879745304584501 14.229868672788141 989.34266290068626 64.046678654849529 14.050627894699575 132.67172604799271 25.174178324639801 18.294652156531811 9.9451926946639997 11.463766194880007 50.168020561337471 18.985278949141506 86.662871859967709 13.655022017657755 40.842202417552471 35.276756435632706 7.1428431570529929 23.148098938167099 6.3887635618448249 26.928877666592598 57.058966420590878 6.8510039895772925 4.0014735683798781 11.46170102059841 43.641103178262711 6.3777765855193129 16.400620579719543 10.826379232108591
leaf_count=25 497 117 58 69 2117 178 49 324 66 66 53 56 127 60 390 43 130 112 28 114 30 82 184 27 20 44 257 30 71 44
internal_value=0.059715 0.065345 0.039751 0.0107872 0.0771944 0.0124578 -0.00384139 0.0341254 -0.0120495 0.0813371 0.0158575 0.0243792 0.0342959 -0.0220285 -0.0271117 -0.0327864 0.00791703 0.0416151 0.0159233 -0.00639893 0.00346199 -0.00611457 0.00854258 -0.0135932 -0.024497 0.033469 -0.0270499 0.00361864 -0.00152176 0.0456498
internal_weight=2029.88 1767.55 668.976 438.042 1098.57 262.333 186.825 191.655 246.388 1007.64 108.731 71.577 60.1132 157.244 125.681 100.318 89.1438 178.775 47.985 37.1542 31.5629 41.1587 90.9337 29.9991 78.0938 75.5084 74.0924 25.3631 30.4512 143.498
internal_count=5468 4447 1963 1466 2484 1021 799 538 928 2183 402 236 180 619 523 433 309 480 158 166 96 151 301 141 397 222 377 90 120 368
cat_boundaries=0 5 10 15 20 25 30 31 32 37 38 43 48
cat_threshold=545523776 1140985936 1073774784 1342591488 18944672 2550169860 2147486753 409143297 2282749976 538108160 70268032 7340674 9990 14682371 4719696 3178752 36700672 8192 1048576 1049856 545521728 131072 1073741888 1342177280 2163360 21626888 33816584 524288 16777344 234883074 16 194 32 8396804 33554432 0 262144 48 0 0 8192 1048576 1049856 0 1073741824 0 262144 16777216
is_linear=0
shrinkage=0.094037


Tree=11
num_leaves=31
num_cat=7
split_feature=20 6 20 20 20 62 30 19 75 26 33 21 79 21 6 79 79 21 79 21 79 36 21 20 79 79 79 21 79 21
split_gain=50.1911 71.0834 103.273 37.8037 22.5694 20.8018 19.6533 14.5425 10.84 9.33047 9.13668 6.77403 5.79718 5.71349 3.89991 4.7618 3.53413 3.42608 3.00707 2.99461 2.77881 1.73379 1.24278 0.929611 0.670492 0.650615 0.631488 0.607472 0.603669 0.536969
threshold=0 1 2 3 4 1.0000000180025095e-35 1.0000000180025095e-35 1.0000000180025095e-35 1.0000000180025095e-35 0.78656609248549325 1.5000000000000002 2013.5000000000002 5997.5527056625588 2019.5000000000002 5 4929.4555653087455 5576.7791427799393 2007.5000000000002 5841.4430898203291 2021.5000000000002 1132.8158342062964 1.0000000180025095e-35 2009.5000000000002 6 1439.9215388176383 839.49865296803193 3581.4853267952572 2022.5000000000002 5132.6628550375472 2011.5000000000002
decision_type=9 9 9 9 9 2 2 2 2 2 2 2 2 2 9 2 2 2 2 2 2 2 2 9 2 2 2 2 2 2
left_child=-1 4 11 12 9 6 7 8 10 13 17 14 20 21 15 -3 19 -6 -16 24 -4 -2 -22 -5 25 -7 -10 -13 29 -9
right_child=1 2 3 23 5 16 -8 28 26 -11 -12 27 -14 -15 18 -17 -18 -19 -20 -21 22 -23 -24 -25 -26 -27 -28 -29 -30 -31
leaf_value=0.08019026255550829 -0.024730671387224758 0.024441529604192103 -0.0044425388575696466 -0.0013444249643075955 0.018799827170108377 -0.0050321842238490386 -0.0078915891771966749 0.0022667956643902891 -0.0052257493968160228 0.022242555190157855 -0.0006769518182189382 0.056617079814269985 -0.010543710512762412 0.0096482034536775601 -0.016194298117346535 -0.0075131422530732832 -0.0055614494682133878 0.072870920424111432 0.0076610944124698536 -0.0052631092163165196 -0.00098671686249237689 0.0020015289572588267 0.025384063174873361 -0.055416974883121049 0.023202766647604418 0.0056270663414090165 0.0051968447936602919 0.0022991732015175907 0.003738344054923546 -0.0098400079610142036
leaf_weight=558.18696888536215 44.753635078668594 39.575393058359623 8.2058328837156278 18.606017544865608 89.545776590704918 7.5567886084318188 14.845609188079832 6.4449689611792582 10.654119461774828 18.42555296421051 15.07299095392227 118.21972528100014 17.425578348338604 15.310433268547056 17.338697336614135 10.091460980474947 27.171363651752472 661.47009967267513 10.311552837491034 7.4967665225267401 10.205829694867132 10.138710677623747 56.481105946004391 121.72637283802032 93.306247249245644 11.629610568284987 10.55858540534973 9.9580712467432004 5.0700714439153662 6.5190759003162384
leaf_count=1085 193 127 45 78 242 30 64 20 36 41 46 270 82 37 88 46 88 1360 29 29 54 31 204 757 257 34 24 30 12 29
internal_value=0.0543785 0.039878 0.00575827 -0.0313592 0.0522776 0.0563143 0.0625095 0.0644847 0.0662437 0.00165489 0.067885 0.0442389 0.0106476 -0.0132069 0.00863458 0.0161475 0.0133603 0.0691846 -0.00761305 0.0181998 0.0193128 -0.0216335 0.0231177 -0.0518354 0.0214299 0.000738517 -3.05911e-05 0.0551247 -0.00348496 -0.00711071
internal_weight=2052.3 1494.12 438.146 232.651 1055.97 967.342 820.181 805.336 787.302 88.6283 766.089 205.495 92.3183 70.2028 77.3171 49.6669 147.161 751.016 27.6503 119.989 74.8928 54.8923 66.6869 140.332 112.493 19.1864 21.2127 128.178 18.0341 12.964
internal_count=5468 4383 1810 1220 2573 2271 1833 1769 1708 302 1648 590 385 261 290 173 438 1602 117 350 303 224 258 835 321 64 60 300 61 49
cat_boundaries=0 5 6 11 16 21 22 26
cat_threshold=486691328 3075 154275845 2285895682 570573058 210 1582120 2485404044 2214626592 1073744648 269518848 128 46150176 268436098 525316 16786992 8 270532616 67141920 8390656 1048576 772 1 0 2112 1048576
is_linear=0
shrinkage=0.094037


Tree=12
num_leaves=31
num_cat=11
split_feature=20 6 20 21 20 20 20 20 19 20 26 20 79 9 33 33 78 60 20 34 79 62 79 33 79 79 79 79 30 79
split_gain=44.1212 69.455 69.4206 35.8331 66.4362 28.3933 23.3583 13.1454 11.0334 7.09586 6.81512 6.3592 4.5117 3.69701 3.50555 3.39368 3.07039 2.93218 2.86121 2.33868 2.33305 2.23089 2.59831 1.52545 1.49167 1.46712 1.05678 0.548764 0.402284 0.329956
threshold=0 1 2 2012.5000000000002 3 4 5 6 1.0000000180025095e-35 7 -0.78656609248549303 8 343.45381998061208 1.0000000180025095e-35 1.5000000000000002 1.5000000000000002 9 1.0000000180025095e-35 10 1.0000000180025095e-35 2819.706478882465 1.0000000180025095e-35 931.2958499985981 1.0000000180025095e-35 1636.215617432201 5934.5106430336609 5263.7756265719663 5776.2677754586921 1.0000000180025095e-35 4929.4555653087455
decision_type=9 9 9 2 9 9 9 9 2 9 2 9 2 2 2 2 9 2 9 2 2 2 2 2 2 2 2 2 2 2
left_child=-1 3 10 4 -2 13 21 23 9 -5 20 29 -13 -4 17 -14 27 28 -7 -18 -3 22 -6 26 -23 -22 -8 -15 -11 -9
right_child=1 2 5 8 6 18 7 11 -10 14 -12 12 15 16 -16 -17 19 -19 -20 -21 25 24 -24 -25 -26 -27 -28 -29 -30 -31
leaf_value=0.073379775935329128 0.056971850006851558 0.010204603592359663 0.022253274823670757 0.0050018200759895494 -0.0025438382288425847 -0.003897527199385457 0.015268189764938553 -0.0022014761257673422 -0.0035077079507653225 0.067264557788301149 0.044024929324267416 0.0036881397971894529 -0.044606462190390342 0.011523402771131759 0.0018481406654696961 0.0020004683771370569 -0.018593205674792876 0.002621555061953839 -0.054456171738761036 0.0049721454638287053 -0.013734078429233892 0.0068956229792440041 0.027754743294140256 -0.0048069275716424347 -0.0095979446591574705 0.0043664209061579978 -0.0027449065435543461 -0.0019184806221425551 0.0040273710715196011 0.0060814725259422655
leaf_weight=571.8525867909193 139.2212131023407 20.100137114524841 12.096218325197695 49.111687421798706 12.593615896999834 39.859225414693356 42.952034413814545 9.813550032675268 13.780962675809858 593.05580201745033 111.77115143090487 5.426419883966445 113.7316804677248 19.202489539980892 13.17818859964609 6.5939127206802359 21.101006858050827 14.194388709962366 93.475836336612701 9.0954422801732999 14.336549192667009 7.2273923158645612 67.669752791523933 7.3294952586293212 6.8263898640871048 8.8623134791851026 5.5783139616250983 5.3500501662492743 13.082606583833693 18.359464354813099
leaf_count=1098 287 62 28 137 40 185 114 40 46 1208 309 15 503 58 38 23 114 53 599 34 64 19 172 30 32 26 20 21 41 52
internal_value=0.0497187 0.0362402 -0.000636057 0.0468409 0.0201605 -0.03107 -0.00728019 -0.0220002 0.0600762 0.0616245 0.0353867 -0.0319392 -0.0378509 0.0107344 0.0638718 -0.0422926 -0.00344602 0.0656761 -0.0475916 -0.0121074 0.000915706 0.0198748 0.0241824 0.00833039 -0.0024925 -0.00885541 0.0127558 0.00865145 0.0666116 0.00343466
internal_weight=2066.83 1494.98 355.25 1139.73 443.323 200.18 304.102 209.785 696.404 682.623 155.07 153.925 125.752 66.8452 633.511 120.326 54.749 620.333 133.335 30.1964 43.299 94.3172 80.2634 55.8598 14.0538 23.1989 48.5303 24.5525 606.138 28.173
internal_count=5468 4370 1500 2870 1347 1039 1060 797 1523 1477 461 633 541 255 1340 526 227 1302 784 148 152 263 212 164 51 90 134 79 1249 92
cat_boundaries=0 5 6 11 16 21 26 31 36 41 42 47
cat_threshold=486674944 3083 154341381 2285895714 570556674 242 1056808 2162188708 2147518368 1074268160 269518864 2694874372 5373984 4196866 1048857 647184 17537 100925952 67108928 1036 16786464 524418 2367620 301999104 2097152 5244480 4202497 8388608 1610612800 285212800 134479880 536870912 6291584 8256 2048 1024 1064960 16896 256 524292 2097152 360 0 268435456 268961792 806354944 512
is_linear=0
shrinkage=0.094037


Tree=13
num_leaves=31
num_cat=8
split_feature=20 69 68 20 20 20 30 6 22 15 70 20 6 19 36 21 54 20 79 21 79 79 26 33 79 9 79 79 79 79
split_gain=39.6288 22.9125 24.3026 39.0925 38.6356 23.6465 18.0162 14.6917 13.4891 13.4728 12.1621 11.3328 9.7071 8.86368 9.00095 8.62034 7.04643 6.62835 6.48563 6.23151 4.61526 5.50922 4.1087 4.64871 3.90668 3.22736 2.43186 2.31144 1.86406 1.84075
threshold=0 1.0000000180025095e-35 1.0000000180025095e-35 1 2 3 1.0000000180025095e-35 4 -1.0000000180025095e-35 1.0000000180025095e-35 1.0000000180025095e-35 5 6 1.0000000180025095e-35 1.5000000000000002 2007.5000000000002 1.0000000180025095e-35 7 6736.5154675656822 2012.5000000000002 3488.8619765671906 2343.0528867723774 -0.9159756150367534 1.0000000180025095e-35 1511.2251478981345 1.0000000180025095e-35 3697.072696706397 3793.4210544527164 1215.2745796553793 3817.0855450320528
decision_type=9 2 2 9 9 9 2 9 2 2 2 9 9 2 2 2 2 9 2 2 2 2 2 2 2 2 2 2 2 2
left_child=8 2 4 -4 7 -5 10 -2 11 17 13 19 15 14 16 -10 -6 -7 28 -1 21 24 29 -24 -9 -13 -15 -8 -19 -17
right_child=1 -3 3 5 6 9 27 20 12 -11 -12 25 -14 26 -16 22 -18 18 -20 -21 -22 -23 23 -25 -26 -27 -28 -29 -30 -31
leaf_value=-0.010267308545356386 -0.017587913929140053 -0.011230772246737379 0.05211035917014778 0.02617765499444628 0.070265317988474213 0.0053993471518816337 0.0082511938598979328 -0.0076604937962033862 -0.0091295192827687832 0.016830804215204127 -0.002362190961926696 0.0032830517438752109 -0.0082248841623266643 -0.0077208655139688496 -0.0016401760740162811 -0.010203870201473467 0.0010543440153968305 5.450595555415486e-05 0.0035855407899320481 0.022451348706852853 0.029712017616099051 -0.016600289150541351 0.044312903872309149 -0.0012873861688041013 0.019658097914262214 -0.030870661825842475 0.012709471226415314 -0.011662923113257364 -0.039139886421605874 0.0080619418005045875
leaf_weight=16.863158419728279 40.384437173604965 21.503620713949203 117.35629286617041 75.149483174085617 1095.8397859185934 28.884693644940853 13.590093284845354 12.450468763709067 6.6697236448526374 17.108053714036942 16.374003022909164 9.8207391723990423 37.508766479790211 12.736891046166418 11.710853695869444 7.0844959616661054 16.016187965869904 11.048204846680163 23.136247396469116 38.874320827424526 89.079785659909248 11.451132610440252 85.313138782978058 16.521580725908279 33.494664549827576 54.582458019256592 22.693955421447754 12.76027639210224 114.27330654114485 6.2175503075122833
leaf_count=81 196 159 236 169 2309 83 37 45 34 34 57 33 217 46 36 34 59 35 69 95 202 53 195 57 75 271 52 55 431 13
internal_value=0.0456795 0.0505378 0.052074 0.022893 0.058274 -0.00126944 0.06401 0.00978002 0.00807393 -0.0172413 0.0661227 -0.0111771 0.0216877 0.067193 0.0686165 0.0294808 0.0694254 -0.0258009 -0.0305684 0.0115426 0.0214529 -0.000343727 0.0362045 0.0398185 0.0120833 -0.0251877 0.0050931 -0.00296289 -0.0371261 -0.00208195
internal_weight=2076.5 1797.04 1775.54 386.956 1388.58 269.6 1201.72 186.86 279.456 194.451 1175.37 120.141 159.315 1159 1123.57 121.806 1111.86 177.342 148.458 55.7375 146.476 57.3963 115.137 101.835 45.9451 64.4032 35.4308 26.3504 125.322 13.302
internal_count=5468 4438 4279 1057 3222 821 2651 571 1030 652 2559 480 550 2502 2404 333 2368 618 535 176 375 173 299 252 120 304 98 92 466 47
cat_boundaries=0 5 10 15 20 21 26 27 32
cat_threshold=545523792 1141248080 1073741888 1342591489 18945568 135287042 1568 88081408 536874000 817889412 1048586 8389152 71305472 540019712 75505792 1064 16392 196622 2281701376 131072 774 8388688 1073741840 1073741888 268451840 32 83 1 415236224 786432 0 8192
is_linear=0
shrinkage=0.094037


Tree=14
num_leaves=31
num_cat=11
split_feature=20 21 20 20 6 20 20 20 6 26 21 79 62 33 67 36 79 6 21 79 22 78 68 22 21 78 22 22 22 75
split_gain=42.5831 46.8559 77.007 41.907 20.6411 16.1251 16.0434 15.6301 12.6907 12.1831 9.29095 9.04713 8.54287 9.02498 8.48362 7.17796 6.77588 6.47126 8.11944 5.5056 5.30281 4.97084 4.34896 2.73709 2.64429 1.98057 1.8059 1.77383 2.07088 1.76469
threshold=0 2014.5000000000002 1 2 3 4 5 6 7 0.12940952255126043 2006.5000000000002 3216.51590377203 1.0000000180025095e-35 1.0000000180025095e-35 1.0000000180025095e-35 1.0000000180025095e-35 779.86140627355792 8 2012.5000000000002 2083.586763713975 0.25000000000000006 9 1.0000000180025095e-35 0.68301270189221941 2009.5000000000002 10 -0.93301270189221908 0.93301270189221952 -0.6830127018922193 1.0000000180025095e-35
decision_type=9 2 9 9 9 9 9 9 9 2 2 2 2 2 2 2 2 9 2 2 2 9 2 2 2 9 2 2 2 2
left_child=29 2 8 10 5 -3 -7 9 20 11 -4 19 13 25 15 -9 -10 18 22 -5 -2 23 -12 -6 -19 -8 -18 28 -23 -1
right_child=1 4 3 7 21 6 12 14 16 -11 17 -13 -14 -15 -16 -17 26 24 -20 -21 -22 27 -24 -25 -26 -27 -28 -29 -30 -31
leaf_value=0.065951609255687646 0.012261675321235458 0.066780953334604987 -0.012644875734783368 -0.01239743715981626 0.018030466736194489 0.042361443092573899 8.3383336776541819e-05 -0.057967787237628382 -0.0036835875876907748 0.018248993856173623 0.040348177397513313 -0.031580254460976849 -0.014805141526435762 -0.011807439514566306 0.0053327925545179145 -0.0018892394051764998 0.0022688000836037872 -0.01427887908151948 -0.004561258335173653 0.017967109360963348 -0.016470389206061378 0.0030060873253514846 9.2352820567531403e-05 -0.0056109360472921628 0.0070582897346123819 0.025107037029066095 0.059434232827391999 0.0045423310938924903 -0.021366111589392774 0.0032851863529292672
leaf_weight=552.15063292533159 30.688302651047707 306.15000814199448 21.080313794314861 9.5301065519452077 54.134211741387844 132.92941241711378 43.207903288304806 105.09582263231277 5.6418378651142111 54.00926335901022 103.57639420032501 41.690225921571255 54.677175953984261 33.522113144397736 7.9526468887925139 29.593222558498383 12.639412477612494 15.133559525012968 32.20384356379509 31.9493552967906 14.156542383134363 14.799072027206419 27.487202227115631 11.971753768622873 21.321499101817608 104.72771213948727 174.79252874106169 4.5900619328021994 21.928233817219734 14.022860482335089
leaf_count=1040 113 546 84 53 186 278 121 524 19 159 265 196 210 115 22 116 34 73 106 103 88 61 95 50 66 253 338 11 111 32
internal_value=0.0417324 0.0296374 0.0107814 -0.0108566 0.0447581 0.0498823 0.0244215 -0.0306886 0.0455755 -0.00246778 0.0160342 -0.0185831 0.00457664 0.0136046 -0.0454696 -0.0514214 0.0533267 0.0226483 0.0276602 0.00725169 -0.0016657 0.00179741 0.0354303 0.0122038 -0.00527458 0.0216856 0.0575985 -0.0116863 -0.0164189 0.0641033
internal_weight=2087.35 1521.18 738.542 500.623 782.638 675.214 369.064 279.821 237.919 137.179 220.803 83.1697 236.135 181.458 142.642 134.689 193.074 199.722 163.267 41.4795 44.8448 107.423 131.064 66.106 36.4551 147.936 187.432 41.3174 36.7273 566.173
internal_count=5468 4396 2454 1862 1942 1523 977 1173 592 511 689 352 699 489 662 640 391 605 466 156 201 419 360 236 139 374 372 183 172 1072
cat_boundaries=0 5 10 15 16 21 26 31 32 33 34 35
cat_threshold=486691330 2051 154341389 2285895714 570573056 2695921925 2282751264 4197378 34603164 135372928 9344 73539720 1342709824 1101531393 73928260 626 4195424 268976272 3053716000 536872192 293603346 1843204 2202010124 4227072 67389952 67108873 4718600 1115947524 570426240 268435456 268697656 549 596 13441 332
is_linear=0
shrinkage=0.094037


Tree=15
num_leaves=31
num_cat=7
split_feature=15 20 6 20 62 30 60 21 4 75 45 20 20 33 20 68 26 11 69 27 21 11 8 26 21 22 22 21 21 79
split_gain=35.186 71.9163 40.9782 40.5807 26.1227 32.7782 26.0664 23.7763 21.2716 19.0077 17.296 16.8955 16.4044 11.7544 9.20476 8.91917 8.62005 7.05069 6.63693 4.91905 4.29382 4.10449 3.957 3.92723 3.7287 3.33192 4.61982 3.17548 2.53564 2.15966
threshold=1.0000000180025095e-35 0 1 2 1.0000000180025095e-35 1.0000000180025095e-35 1.0000000180025095e-35 2018.5000000000002 3 1.0000000180025095e-35 1.0000000180025095e-35 4 5 1.5000000000000002 6 1.0000000180025095e-35 -0.78656609248549303 1.0000000180025095e-35 1.0000000180025095e-35 0.78656609248549303 2017.5000000000002 1.0000000180025095e-35 1.0000000180025095e-35 0.78656609248549325 2022.5000000000002 -1.0000000180025095e-35 0.68301270189221941 2009.5000000000002 2011.5000000000002 5485.0227254665233
decision_type=2 9 9 9 2 2 2 2 9 2 2 9 9 2 9 2 2 2 2 2 2 2 2 2 2 2 2 2 2 2
left_child=1 8 4 -4 5 6 12 11 16 -2 14 -5 25 18 20 22 -1 27 -14 21 23 -16 -6 -10 -9 -3 -27 -17 -11 -29
right_child=9 2 3 7 15 -7 -8 24 10 28 -12 -13 13 -15 19 17 -18 -19 -20 -21 -22 -23 -24 -25 -26 26 -28 29 -30 -31
leaf_value=-0.0099947520690841247 0.074022879239068862 -0.0056081205101328521 0.038695387712327341 0.01054858732487487 0.029721345437461192 -0.016348821870404501 -0.012502775648635471 0.02186201583257472 -0.018727796421973069 -0.0067404760454312946 0.018656178053165332 -0.044337347015401193 0.064257609122674059 -0.0031270010870536693 -0.050275746198803511 0.0043170643952281703 0.030774376574278554 0.017009085559299655 -0.0010586962230469499 0.0010270074930518109 0.011014572781387221 0.0013554481298205534 -0.0036458200511336604 0.0081458868038447214 -0.0066885210399272709 0.023910009903448142 -0.0061731613204204826 -0.022840292375945512 0.013544984071919062 0.0018756363557115845
leaf_weight=15.013251632452009 279.45167714357376 42.325195133686066 67.833091959357262 27.149672538042068 66.929792053997517 21.50059399753809 18.592575013637543 48.846399314701557 53.528173469007015 19.07404026389122 15.277334749698637 109.85614351928234 795.20735271275043 15.479242406785486 88.151081189513206 33.242551445960999 53.225798383355141 10.448798403143881 10.964867405593393 16.625004217028618 38.717937402427197 9.5982055440545064 16.36243250221014 9.8395000696182233 8.292850159108637 44.361960336565971 21.533642843365669 66.138922922313213 46.327851310372353 22.658099800348282
leaf_count=63 524 136 122 67 141 95 95 120 218 65 27 493 1628 49 410 98 125 14 75 51 101 30 81 27 34 99 72 235 112 61
internal_value=0.0384886 0.0301378 0.0382697 0.00261811 0.0453137 0.051914 0.0547729 -0.0189851 -0.00960911 0.0655232 -0.0217658 -0.0350669 0.0571246 0.0612401 -0.0300447 0.0104561 0.0199709 -0.00495592 0.0633518 -0.0407139 -0.0022319 -0.0470089 0.0246949 -0.0122002 0.0161472 0.00859558 0.0162124 -0.0133474 0.00714659 -0.0187909
internal_weight=2092.55 1747.7 1447.72 261.978 1185.75 969.965 948.465 194.145 299.976 344.854 231.737 137.006 929.872 821.651 216.46 215.781 68.2391 132.488 806.172 114.374 102.086 97.7493 83.2922 63.3677 57.1392 108.221 65.8956 122.04 65.4019 88.797
internal_count=5468 4767 3715 836 2879 2249 2154 714 1052 701 864 560 2059 1752 837 630 188 408 1703 491 346 440 222 245 154 307 171 394 177 296
cat_boundaries=0 5 6 11 12 16 21 26
cat_threshold=2883594 3031880 33562976 1904214017 37633 118 469762080 2147483649 5 2147483648 269484032 9 1073152 0 85983232 135266308 49152 17 67109376 6291472 17825808 262144 16640 352 1342177280 769
is_linear=0
shrinkage=0.094037


Tree=16
num_leaves=31
num_cat=11
split_feature=20 21 20 20 20 20 20 26 27 79 6 22 8 20 6 26 62 78 33 6 27 67 27 79 21 79 79 33 8 27
split_gain=37.4115 41.5579 62.0629 40.8109 24.7936 16.0762 14.6052 9.39329 8.70863 8.64436 7.9817 7.97468 7.61674 7.06781 6.87243 6.59369 5.10831 4.70197 4.05355 3.68605 3.5128 3.49875 3.13222 3.09199 2.96779 2.83296 2.70606 1.82908 1.86857 1.66879
threshold=0 2014.5000000000002 1 2 3 4 5 0.12940952255126043 0.98296291314453432 3216.51590377203 6 0.25000000000000006 1.0000000180025095e-35 7 8 -0.9829629131445341 1.0000000180025095e-35 9 1.0000000180025095e-35 10 -0.60355339059327384 1.0000000180025095e-35 -0.37940952255126009 4268.3864663801514 2013.5000000000002 1167.1052808031675 6290.555649169256 1.0000000180025095e-35 1.0000000180025095e-35 -0.9159756150367534
decision_type=9 2 9 9 9 9 9 2 2 2 9 2 2 9 9 2 2 9 2 9 2 2 2 2 2 2 2 2 2 2
left_child=-1 2 12 10 11 27 7 9 17 22 15 -3 25 16 23 -4 18 -8 -7 -13 29 -19 -5 -15 -12 -2 -16 28 -6 -17
right_child=1 4 3 6 5 13 8 -9 -10 -11 24 19 -14 14 26 20 -18 21 -20 -21 -22 -23 -24 -25 -26 -27 -28 -29 -30 -31
leaf_value=0.056193749061165151 0.0013112756899058596 0.065985579376416345 -0.0085508977191740537 -0.0081445684702552198 0.037142748000028626 0.0251576165889617 3.5914721481003239e-05 0.015450057793880133 0.0062037071913628406 -0.029944234634667447 -0.015796756367121193 0.021520757890853868 -0.0038427173938506776 -0.0069855663267627162 -0.024967610136983641 0.0090906229879946683 -0.0084043580088846697 -0.05673456357322805 -0.0058108900903036361 -0.0036602501619380969 0.033269671835402095 0.00079854175841866288 0.014987845821369195 0.017519003410552157 0.007870887745258244 0.046594004905062027 0.0029747094937023675 0.0032313266140992563 0.00011432783837306981 -0.0068697526843141225
leaf_weight=554.74787422269583 18.439734682440758 240.41120836883783 9.3156481459736806 13.741800054907797 158.35221228003502 66.45315645635128 26.191176533699036 57.80093938857317 7.1087134033441535 39.569558352231979 34.377084046602249 57.354664698243141 16.727147094905376 11.926446273922918 85.734330654144287 25.243627853691578 22.081771060824394 119.94389402866364 10.627226948738096 44.426691092550755 118.17211224883795 7.1275799348950377 31.984946429729462 23.175852179527283 5.7328202202916136 198.24869475513697 15.33393958956003 37.9303218126297 13.259812653064726 25.046316631138325
leaf_count=1052 47 417 39 62 340 156 89 164 18 186 151 111 85 46 348 69 84 610 38 134 312 23 89 52 10 431 43 106 60 96
internal_value=0.0354368 0.0247238 0.00762532 -0.0109074 0.0388828 0.0170788 -0.0294966 -0.00256762 -0.0431727 -0.0166052 0.0161346 0.0559072 0.0395086 -0.00117164 -0.0118673 0.0228346 0.0120844 -0.0486917 0.0200485 0.0149348 0.0278569 -0.0521504 0.00723871 0.00942369 -0.00863387 0.0442822 -0.0202822 0.0312399 0.0353216 0.00184002
internal_weight=2096.59 1541.84 754.772 521.356 787.068 444.875 303.469 143.097 160.371 85.2963 217.888 342.193 233.416 235.333 136.171 177.778 99.1622 153.263 77.0804 101.781 168.462 127.071 45.7267 35.1023 40.1099 216.688 101.068 209.542 171.612 50.2899
internal_count=5468 4416 2481 1918 1935 1273 1241 501 740 337 677 662 563 767 489 516 278 722 194 245 477 633 151 98 161 478 391 506 400 165
cat_boundaries=0 5 10 15 20 25 30 31 36 37 38 39
cat_threshold=419451650 2059 154341389 2285895714 570573056 2761981956 2282751264 4197378 34603036 135372928 1049729 69345280 1342709824 1101531521 69733988 4326432 277364756 3020194336 603997440 276826131 67903565 2202010240 33563904 268700164 83886088 4726792 1078198912 570426240 268435456 272891928 596 1048704 1076888608 4718786 35651600 524288 99 4256 48
is_linear=0
shrinkage=0.094037


Tree=17
num_leaves=31
num_cat=12
split_feature=15 20 62 20 30 60 20 6 75 9 20 45 4 6 22 20 2 22 20 20 21 26 21 78 69 79 27 21 11 21
split_gain=32.5544 59.3491 33.2186 47.8625 29.9175 25.2071 23.5697 24.5366 16.49 15.9205 15.6432 14.8522 15.1601 10.9789 8.87448 8.12521 7.04855 9.9268 6.65677 6.65171 6.60969 6.20155 5.92562 6.36642 5.71394 4.751 4.35612 3.8062 3.52431 3.06454
threshold=1.0000000180025095e-35 0 1.0000000180025095e-35 1 1.0000000180025095e-35 1.0000000180025095e-35 2 3 1.0000000180025095e-35 1.0000000180025095e-35 4 1.0000000180025095e-35 5 6 -0.93301270189221908 7 8 -1.0000000180025095e-35 9 10 2019.5000000000002 -0.78656609248549303 2017.5000000000002 11 1.0000000180025095e-35 2533.4180907578561 0.78656609248549303 2021.5000000000002 1.0000000180025095e-35 2007.5000000000002
decision_type=2 9 2 9 2 2 9 9 2 2 9 2 9 9 2 9 9 2 9 9 2 2 2 9 2 2 2 2 2 2
left_child=1 11 4 25 5 6 7 14 27 -5 -11 12 21 20 -3 22 24 -18 -9 -12 -8 -1 23 -14 -15 -4 28 -2 -17 -16
right_child=8 2 3 9 -6 -7 13 18 -10 10 19 -13 15 16 29 26 17 -19 -20 -21 -22 -23 -24 -25 -26 -27 -28 -29 -30 -31
leaf_value=-0.010667951895470774 0.068824362987402077 -0.0093225807073732039 -0.0026126216396995779 0.018273243946825904 -0.018811814997743589 -0.014565816683527874 -0.014608573089829434 0.0065226403932607058 0.0056217642998860904 0.0080131368470118258 0.0032620452593114563 0.02274317836244508 0.0081846080841990274 0.058489513682402725 -0.0023653286110862188 -0.047220336960487455 0.021409136687518256 -0.017400683454500916 -0.030936017471282547 -0.041835749577960005 0.017243414108779956 0.021511993609417676 0.01248126754751344 -0.02399557655992875 -0.001127655560717652 0.045736863744476539 0.0010419062303823232 0.0052689389041995884 0.0012227279630791998 0.035541728710539268
leaf_weight=15.184805445373057 256.75827373564243 11.976804688572882 9.3162559345364553 22.540655136108398 23.881261870265007 24.47383201867342 30.683615818619728 23.214551813900471 65.57601048797369 60.228221051394939 25.528704889118671 18.498428016901016 28.740309096872807 739.03717224299908 8.6420341581106168 83.510185971856117 30.261713407933712 21.700799018144608 39.23031260818243 130.46969521790743 16.306940361857414 50.848633222281933 45.577864728868008 36.536385081708431 10.952706746757029 95.098032802343369 16.359289012849331 25.066212080419064 9.4312024861574155 121.79527838528156
leaf_count=64 463 41 33 50 108 119 126 63 177 171 72 30 103 1464 27 393 63 82 211 549 31 130 114 153 73 175 49 61 29 244
internal_value=0.0328504 0.0251912 0.0326687 0.00547185 0.0403344 0.043023 0.0454248 0.00924489 0.0580568 -0.0173594 -0.0259891 -0.0101948 -0.0176165 0.0517463 0.0261474 -0.0266711 0.0543517 0.00415047 -0.0216057 -0.0360857 0.000508668 0.0114821 -0.00252389 -0.0143346 0.0569149 0.0401774 -0.0381075 0.065864 -0.0441438 0.0330908
internal_weight=2097.43 1750.03 1445.34 343.182 1102.16 1078.28 1053.8 204.859 347.4 238.767 216.227 304.687 286.189 848.943 142.414 220.155 801.952 51.9625 62.4449 155.998 46.9906 66.0334 110.855 65.2767 749.99 104.414 109.301 281.824 92.9414 130.437
internal_count=5468 4767 3702 1050 2652 2544 2425 586 701 842 792 1065 1035 1839 312 841 1682 145 274 621 157 194 370 256 1537 208 471 524 422 271
cat_boundaries=0 5 10 15 16 21 22 23 28 29 34 39 40
cat_threshold=2883594 3557192 33562976 1887436801 37377 402669600 1 17828357 4194304 352452624 9494528 67108880 604013056 6291472 285802704 16 9472 138412080 336068608 2147485708 8256 9 904 262144 1066240 352 1342177280 513 17 24576 67108864 67108864 0 524288 17956865 67108864 0 0 41943296 10249
is_linear=0
shrinkage=0.094037


Tree=18
num_leaves=31
num_cat=8
split_feature=11 20 21 20 20 20 27 20 51 20 6 67 28 68 51 22 32 79 8 49 79 34 20 67 8 33 22 61 43 26
split_gain=33.8371 51.4047 32.8858 85.4497 27.6166 25.4509 29.2533 51.8769 16.2571 13.6414 11.2928 8.60505 9.18799 8.22272 6.93752 8.95609 6.54341 6.49553 6.49352 4.59065 4.54489 4.1502 4.06596 4.42184 3.55298 3.35851 3.18241 6.46023 2.78564 2.7038
threshold=1.0000000180025095e-35 0 2011.5000000000002 1 2 3 0.25881904510252057 4 1.0000000180025095e-35 5 6 1.0000000180025095e-35 1.0000000180025095e-35 1.0000000180025095e-35 1.0000000180025095e-35 -0.5 1.5000000000000002 343.45381998061208 1.0000000180025095e-35 4.5000000000000009 997.53990628436452 1.0000000180025095e-35 7 1.0000000180025095e-35 1.0000000180025095e-35 1.0000000180025095e-35 0.93301270189221952 1.0000000180025095e-35 1.0000000180025095e-35 -0.60355339059327362
decision_type=2 9 2 9 9 9 2 9 2 9 9 2 2 2 2 2 2 2 2 2 2 2 9 2 2 2 2 2 2 2
left_child=1 14 3 21 10 13 7 18 -8 -9 29 12 17 20 15 -1 19 -6 -7 24 -4 -3 -11 -24 -10 -22 27 -16 -19 -5
right_child=-2 2 5 4 11 6 8 9 16 22 -12 -13 -14 -15 26 -17 -18 28 -20 -21 25 -23 23 -25 -26 -27 -28 -29 -30 -31
leaf_value=-0.011427540367957375 0.065574929550123839 0.042824035782043371 0.00088123239974061411 -0.0018596539570892214 0.0036711988384908537 0.031902308167042412 -0.012511979675431063 0.0037395527278581901 0.043065941469274061 -0.0045365472600349338 -0.017236628318094641 0.0044919041482736604 0.0054775078947805816 0.0057849585273737148 0.058889569135627033 0.023890887613923877 -0.0036924178298416463 -0.058920724615659455 -0.0071253532239984171 -0.0031591307016842094 0.053811380473815382 -0.00099101085174303771 -0.056171723607907287 0.0022783819309743643 -0.00066978760796728375 0.0074771649605672339 0.0028013762623678006 -2.1667715442038774e-05 -0.0014324616071824258 0.025051584200839964
leaf_weight=35.782613918185234 160.4234012812376 138.43564743548632 21.586336567997932 27.199457600712776 5.2830271497368804 126.14368387311697 29.907627820968628 60.132137253880501 191.00773096829653 54.410963833332062 34.994557328522205 11.528417602181433 7.4302970096468917 81.527079731225967 346.55715147405863 65.030390813946724 19.405896246433258 169.03086524456739 10.331370532512663 9.0820444971322996 212.40255892276764 16.372390136122704 91.005202278494835 4.7692165598273268 14.470311485230921 49.351568013429642 20.016980543732643 17.03189854323864 12.4850662574172 54.300951510667801
leaf_count=101 295 356 56 74 16 279 102 176 390 170 153 31 19 221 604 125 61 787 59 33 412 64 423 11 74 119 49 50 47 111
internal_value=0.0302208 0.0244462 0.0136109 -0.00583189 -0.0308376 0.0229289 0.00831412 -0.00897161 0.0277057 -0.0325536 0.00495335 -0.0460204 -0.051106 0.0397264 0.0484884 0.0118844 0.0349304 -0.0544232 0.0261237 0.0384835 0.0467323 0.0380112 -0.0427148 -0.0508653 0.0407325 0.0492989 0.0549599 0.0566838 -0.0567811 0.01877
internal_weight=2097.44 1937.01 1452.59 477.061 322.253 975.534 610.666 346.793 263.874 210.318 116.495 205.758 194.229 364.868 484.419 100.813 233.966 186.799 136.475 214.56 283.34 154.808 150.185 95.7744 205.478 261.754 383.606 363.589 181.516 81.5004
internal_count=5468 5173 4244 1658 1238 2586 1778 1118 660 780 338 900 869 808 929 226 558 850 338 497 587 420 604 434 464 531 703 654 834 185
cat_boundaries=0 5 10 15 20 25 30 31 36
cat_threshold=2634158592 3115 420614169 2185232418 570425602 548937992 2186674816 8194 27265032 3776720 4228228 8396804 6295040 268960133 138559488 1027 404766980 2181401508 134758660 84019204 4211012 75497616 1074275394 1310848 276857368 24 1310720 606076928 268435464 4194432 146 32800 3259499008 0 0 16449
is_linear=0
shrinkage=0.094037


Tree=19
num_leaves=31
num_cat=8
split_feature=11 15 20 6 20 20 20 26 2 75 20 21 20 68 21 22 72 49 27 25 37 27 49 79 79 21 26 79 27 25
split_gain=30.2078 45.9968 63.3257 42.3385 55.758 36.0836 28.1923 20.4628 19.1157 13.5207 10.939 12.4229 9.14806 9.03939 6.98624 6.95185 5.54992 5.50099 5.44623 5.32217 5.2622 4.9872 4.66921 4.80296 4.2423 4.16306 3.49763 3.36766 3.32641 2.8099
threshold=1.0000000180025095e-35 1.0000000180025095e-35 0 1 2 3 4 0.78656609248549325 5 1.0000000180025095e-35 6 2021.5000000000002 7 1.0000000180025095e-35 2011.5000000000002 0.93301270189221952 1.0000000180025095e-35 4.5000000000000009 -0.60355339059327384 0.81174490092936691 1.0000000180025095e-35 -0.12940952255126034 1.5000000000000002 6290.555649169256 6091.5447499977317 2007.5000000000002 -1.0000000180025095e-35 7461.2970398429907 0.37940952255126043 1.0000000180025095e-35
decision_type=2 2 9 9 9 9 9 2 9 2 9 2 9 2 2 2 2 2 2 2 2 2 2 2 2 2 2 2 2 2
left_child=1 2 15 5 14 13 8 10 25 20 28 -12 21 19 17 16 22 -5 -10 -4 -3 -6 -1 -24 -16 -7 -20 -25 -8 -15
right_child=-2 9 3 4 12 6 7 -9 18 -11 11 -13 -14 29 24 -17 -18 -19 26 -21 -22 -23 23 27 -26 -27 -28 -29 -30 -31
leaf_value=0.00058834304280650862 0.061444396765844234 0.061199127534149508 0.045121886231182864 -0.017260553074522646 -0.017434590158288545 -0.0022725015790102127 -0.0085513533079599989 0.016851981429445599 0.0083645977368512793 0.0035823029611476306 -0.045463421822086132 0.0069860359848048113 -0.056759010594444902 -0.0094426272169750702 0.030603895522680395 -0.0031151050342629158 0.00023531263136538773 0.012521028365160192 -0.024349437344489681 0.00018674203471299018 0.003327844123297943 0.0090192226246718233 0.054930891641881738 -0.0080203098217115354 -0.0041856751869175776 0.036935727181754412 0.003803677633651136 0.015522282164788709 0.013207463314390216 0.010612670601479876
leaf_weight=19.381732642650604 161.26178896427155 245.20641439408064 220.84514175355434 31.545816503465176 42.23794424533844 15.322228692471979 40.254574134945869 46.345088437199593 46.034919776022434 59.926093138754368 151.31465651839972 21.253961071372032 122.56164402514696 29.466395914554596 88.172086708247662 14.864810243248938 22.975615151226521 13.53973416239023 49.36698491871357 26.013980880379677 25.980381421744823 40.340871326625347 275.67370441555977 20.735924787819386 13.189398027956484 136.02008026838303 23.701623067259789 29.222424268722534 28.469198957085609 34.201879218220711
leaf_count=45 295 440 394 153 170 46 120 111 114 163 585 52 751 86 244 45 65 34 165 61 66 126 519 63 44 260 60 57 58 76
internal_value=0.0281865 0.0227439 0.0144521 0.0026874 -0.0212408 0.0135894 -0.00173768 -0.0191941 0.0170006 0.0509961 -0.0294381 -0.0374076 -0.0452457 0.0347443 0.017161 0.0431827 0.0462406 -0.00591427 -0.00835941 0.0417251 0.0579061 -0.00621537 0.0486086 0.0507062 0.0262395 0.0322831 -0.01819 0.00688652 0.00269758 0.00123573
internal_weight=2095.43 1934.17 1603.05 1220.2 351.587 868.611 558.083 287.637 270.446 331.113 241.292 172.569 205.14 310.527 146.447 382.854 367.989 45.0856 119.104 246.859 271.187 82.5788 345.014 325.632 101.361 151.342 73.0686 49.9583 68.7238 63.6683
internal_count=5468 5173 4504 3710 1522 2188 1571 926 645 669 815 637 1047 617 475 794 749 187 339 455 506 296 684 639 288 306 225 120 178 162
cat_boundaries=0 5 6 11 16 21 22 27 32
cat_threshold=2281836545 2151678119 419567641 2182088738 306184212 82 336601128 109051904 2215674016 138938112 152184320 289408836 1057280 572588544 2097164 613050442 612409392 444744728 1078207494 272646273 66688 1 3686400 1074003968 32 852736 33024 1024 268439816 526084 268435468 536873216
is_linear=0
shrinkage=0.094037


Tree=20
num_leaves=31
num_cat=10
split_feature=21 49 20 6 20 20 20 6 79 62 78 79 2 20 36 28 54 27 26 26 49 20 26 61 27 68 79 30 49 79
split_gain=27.6218 70.6091 110.947 35.3746 34.8228 26.0377 20.7887 17.791 14.1922 8.14134 7.90867 7.81405 7.59052 7.46114 6.56132 5.70222 5.23625 4.55286 5.45835 4.46118 4.04975 3.95117 2.58613 2.51318 4.07259 2.41411 2.40386 2.08914 3.59445 1.31725
threshold=2014.5000000000002 2.5000000000000004 0 1 2 3 4 5 734.07934917404793 1.0000000180025095e-35 6 1283.5835511057523 7 8 1.5000000000000002 1.0000000180025095e-35 1.0000000180025095e-35 -0.78656609248549325 -0.9159756150367534 -0.9829629131445341 2.5000000000000004 9 0.60355339059327384 1.0000000180025095e-35 0.78656609248549303 1.0000000180025095e-35 1511.2251478981345 1.0000000180025095e-35 4.5000000000000009 6091.5447499977317
decision_type=2 2 9 9 9 9 9 9 2 2 9 2 9 9 2 2 2 2 2 2 2 9 2 2 2 2 2 2 2 2
left_child=1 2 11 6 17 9 -3 10 -5 26 -7 -1 15 -6 16 27 19 -4 -19 -10 -12 -15 -13 24 -8 -14 -2 28 -9 -28
right_child=5 3 4 8 13 7 23 12 14 -11 20 22 25 21 -16 -17 -18 18 -20 -21 -22 -23 -24 -25 -26 -27 29 -29 -30 -31
leaf_value=-0.003819226515836687 -0.0046457374447395469 0.024626604551808106 -0.012311684583369681 -0.0081511366466359148 -0.0053843670265245813 0.016067774182065717 -0.036041748494144564 0.052736289768405803 0.0011582223380757143 -0.019852016393449055 -0.022526904684404145 0.045701245654594332 0.010874305038259745 -0.0016007707951997288 -0.0035892479301388781 -0.0015512219887192278 -0.0020086588687028067 -0.010157906542936449 0.020452467256018105 0.052996497109420254 0.0059792394551462201 -0.071881907018684479 0.0022207812501416754 -0.00052202467710036672 0.0028908800100617021 -0.0081812486070467882 0.01744537577949817 0.0022697970692706318 0.0033454076912425015 -0.0027346224697982159
leaf_weight=20.766512162983418 27.050220802426338 25.481285490095615 11.357010245323179 16.528702199459076 51.93547959625721 63.220890454947948 49.577436186373234 688.50692266225815 19.465777061879635 31.36557149887085 30.974235117435455 128.54450411349535 42.923990108072758 22.658259004354477 8.8602160364389402 13.343655936419962 9.9064831137657148 10.115117266774176 69.556126050651073 377.94720716029406 20.487801231443882 131.06912974268198 23.150187164545059 32.050841569900513 13.157587893307207 18.695357993245125 82.303279496729374 16.50329452008009 26.449331477284431 7.504571631550788
leaf_count=63 76 45 48 65 160 183 267 1323 58 125 147 244 93 71 28 38 40 42 169 839 62 639 58 144 47 60 194 48 69 23
internal_value=0.0263367 0.0134385 -0.0122752 0.0338909 -0.0421263 0.0366201 -0.00775775 0.0417967 0.0441036 -0.000940257 0.00256812 0.036092 0.046459 -0.0578106 0.0481484 0.0491752 0.0497286 0.00514418 0.0132017 0.0511537 -0.0136726 -0.066299 0.0424138 -0.0247238 -0.0310152 0.0034313 0.0106076 0.0507677 0.0515 0.015228
internal_weight=2091.46 1022.13 469.152 552.976 296.691 1069.33 120.267 921.105 432.708 148.224 114.683 172.461 806.423 205.663 416.18 744.803 407.319 91.0283 79.6712 397.413 51.462 153.727 151.695 94.7859 62.735 61.6193 116.858 731.46 714.956 89.8079
internal_count=5468 3027 1494 1533 1129 2441 503 2023 1030 418 392 365 1631 870 965 1478 937 259 211 897 209 710 302 458 314 153 293 1440 1392 217
cat_boundaries=0 5 6 11 16 21 22 23 24 29 34
cat_threshold=137401731 142609449 404751424 402653320 721024 808 629162016 2367488 1090795522 16 704645888 1048832 3146752 6292546 167772168 1083264 0 2147483904 335544320 134217728 1048832 389 13512 17 4 1073741824 512 537920772 5243984 0 1048576 570490880 16777216 268435456
is_linear=0
shrinkage=0.094037


Tree=21
num_leaves=31
num_cat=12
split_feature=20 21 20 20 20 6 62 27 6 27 36 20 67 6 44 78 27 26 27 79 78 78 22 61 26 49 79 4 22 26
split_gain=30.1235 28.0878 47.7421 30.3156 29.3717 15.5525 15.117 20.4236 10.2594 9.12832 8.9388 19.1042 10.7915 8.91761 8.02071 7.54807 7.13838 5.92096 5.72668 5.04856 4.99434 4.90516 4.31805 4.24348 3.72049 3.49402 2.823 2.8208 2.67955 2.64596
threshold=0 2014.5000000000002 1 2 3 4 1.0000000180025095e-35 -0.12940952255126034 5 -0.78656609248549325 1.0000000180025095e-35 6 1.0000000180025095e-35 7 1.0000000180025095e-35 8 -0.70710678118654757 -0.9829629131445341 -0.60355339059327384 779.86140627355792 9 10 0.25000000000000006 1.0000000180025095e-35 0.60355339059327384 3.5000000000000004 4268.3864663801514 11 0.68301270189221941 1.0000000180025095e-35
decision_type=9 2 9 9 9 9 2 2 9 2 2 9 2 9 2 9 2 2 2 2 9 9 2 2 2 2 2 9 2 2
left_child=23 2 8 5 13 22 7 9 25 -5 11 16 14 17 -13 -9 -6 -4 -19 -10 24 -12 -3 -1 -8 -2 -11 28 -17 -23
right_child=1 3 4 6 10 -7 20 15 19 26 21 12 -14 -15 -16 27 -18 18 -20 -21 -22 29 -24 -25 -26 -27 -28 -29 -30 -31
leaf_value=0.044401014555894722 -0.014612314357271559 0.011690772929828664 -0.0089393505287503946 0.010226091539832815 -0.0166991758148365 0.053274539818251858 -0.029871774593697817 0.037393602739256245 -0.0043469055418505773 -0.028588205346936037 0.013705040807081487 -0.05778222053846413 0.0061202741102653986 -0.012395947302870457 0.0029475388652757985 -0.016246690162701388 0.014316696497321032 -0.0021685749514169083 0.030826095514739332 0.040927296287707041 0.0050049036883539769 -0.019178479604220568 -0.01278990118347265 0.00048634852161199876 0.0040397211098516213 0.0091931595755718118 0.00064885566650758463 0.0098703982922857102 0.0064996924035906241 0.004735821669978206
leaf_weight=508.59697438031435 25.288530483841896 49.915636479854584 9.4001347348093969 66.112216286361217 19.481439672410488 263.33144310861826 47.836284711956978 147.56593088060617 5.6718258112668982 39.413334786891937 28.591236561536789 141.22546739131212 10.207398958504198 35.325157806277275 11.545705601572989 27.069886192679405 69.158762753009796 45.305160768330097 113.52166682481766 184.37084798514843 43.307293348014355 20.198203474283218 23.665186986327171 22.233989529311657 11.204613290727137 18.733881689608097 32.385379515588284 38.708563588559628 11.666294619441031 18.176947116851807
leaf_count=946 130 120 41 172 86 458 206 305 19 160 78 697 24 154 35 95 196 152 298 365 136 108 81 63 32 53 85 92 25 56
internal_value=0.0240347 0.0154752 0.00197628 0.0268577 -0.013647 0.0447564 0.00769695 0.0162704 0.030324 -0.00896475 -0.0284009 -0.0352228 -0.0473466 0.0112195 -0.0538106 0.0298473 0.00233236 0.0189891 0.0240748 0.0372767 -0.0156115 0.00100265 0.0010213 0.0422281 -0.0233528 -0.00476637 -0.0224501 0.000713509 -0.008959 -0.011616
internal_weight=2089.22 1558.38 756.202 802.182 522.137 336.912 465.27 362.922 234.065 137.911 318.585 251.619 162.979 203.552 152.771 225.011 88.6402 168.227 158.827 190.043 102.348 66.9664 73.5808 530.831 59.0409 44.0224 71.7987 77.4447 38.7362 38.3752
internal_count=5468 4459 2492 1967 1925 659 1308 934 567 417 1280 1038 756 645 732 517 282 491 450 384 374 242 201 1009 238 183 245 212 120 164
cat_boundaries=0 5 10 15 20 21 22 27 28 29 30 31 32
cat_threshold=419566338 3075 152244237 2285895730 570573056 2761981952 2282881312 6294530 35127308 135372928 4736032 277364764 2751759136 604261632 276824083 1065093 1142956032 1342709952 1101004929 69733988 71 550 8192 42205828 537133312 2304 272891912 596 26833 25697 21792 2
is_linear=0
shrinkage=0.094037


Tree=22
num_leaves=31
num_cat=7
split_feature=45 15 20 11 20 68 20 44 24 43 20 75 20 25 27 34 72 22 6 49 26 26 20 49 79 21 44 34 49 27
split_gain=31.106 46.0138 59.7542 42.4142 42.1751 33.7032 34.8101 19.6187 15.2502 14.4206 13.0211 11.9539 11.2223 9.53469 9.19655 12.129 8.4646 7.5328 7.52896 8.83556 7.52269 6.90494 9.18948 5.74273 5.19393 5.1735 4.20234 2.80554 2.35507 2.32119
threshold=1.0000000180025095e-35 1.0000000180025095e-35 0 1.0000000180025095e-35 1 1.0000000180025095e-35 2 1.0000000180025095e-35 0.87837969732492682 1.0000000180025095e-35 3 1.0000000180025095e-35 4 0.81174490092936691 0.9159756150367534 1.0000000180025095e-35 1.0000000180025095e-35 0.93301270189221952 5 1.5000000000000002 0.98296291314453432 0.78656609248549325 6 2.5000000000000004 5209.0777298887851 2021.5000000000002 1.0000000180025095e-35 1.0000000180025095e-35 3.5000000000000004 0.1294095225512602
decision_type=2 2 9 2 9 2 9 2 2 2 9 2 9 2 2 2 2 2 9 2 2 2 9 2 2 2 2 2 2 2
left_child=1 2 9 4 16 6 8 10 13 14 -8 25 -7 -6 15 20 17 18 19 -4 26 22 -14 -20 -13 -3 -1 -5 -10 -17
right_child=-2 11 3 27 5 12 7 -9 28 -11 -12 24 21 -15 -16 29 -18 -19 23 -21 -22 -23 -24 -25 -26 -27 -28 -29 -30 -31
leaf_value=-0.054490149582840562 0.058817515759107555 0.054581461396628707 -0.0049187910904240984 0.059900035849480941 0.039092937908166848 0.0079094136083725369 0.0040939876044178095 0.024865253626674202 -0.016070553906152758 0.012055406978978897 -0.028641364612360456 -0.010883608265887672 0.0029517377467087147 -0.0039885357938216409 0.0039250666529967492 -0.0082961777558105236 -0.0064457476896755354 -0.0058238341223217993 -0.013218074137545565 0.047651953723347282 0.0047516740711211619 0.0025839186674392754 -0.049556936056455926 0.015154088227686538 0.016471435282885954 0.0020459535906330603 0.00090602967640303139 0.001720139755512471 0.0059104410296030143 0.010720144897033415
leaf_weight=125.72684136033058 113.5455457046628 254.14647021144629 13.096825718879698 105.84032075852156 246.20529066026211 29.276010140776634 134.64654146879911 32.734419822692871 29.730979405343533 25.52884466201067 215.2040755674243 40.407964736223221 30.422357231378555 34.004698880016804 32.23925819247961 24.078458659350872 17.813536807894707 12.71159680187702 28.64544865489006 265.42647339403629 6.8848301470279685 21.981259152293205 99.969411291182041 42.110368952155113 24.601513490080833 25.148436479270458 9.6667765527963621 13.401230104267595 8.8273569568991643 20.548452146351337
leaf_count=569 181 458 34 162 563 70 398 52 104 66 775 126 85 102 88 95 59 40 98 472 16 64 434 103 48 61 32 35 18 60
internal_value=0.0221931 0.017549 0.00964695 0.0173438 0.0101091 -0.00197295 0.00800059 -0.0103441 0.0269937 -0.0264075 -0.0183718 0.0449593 -0.0302814 0.0341717 -0.0339796 -0.0396545 0.0324511 0.0359996 0.0384202 0.0434007 -0.0482422 -0.0366592 -0.0432516 0.00253246 0.00305739 0.0515329 -0.0517703 0.0569628 -0.0104191 0.0017834
internal_weight=2084.57 1971.03 1626.72 1382.05 1262.81 883.002 701.353 382.585 318.768 244.673 349.851 344.304 181.649 280.21 219.145 186.905 379.804 361.991 349.279 278.523 142.278 152.373 130.392 70.7558 65.0095 279.295 135.394 119.242 38.5583 44.6269
internal_count=5468 5287 4594 3668 3471 2665 2012 1225 787 926 1173 693 653 665 860 772 806 747 707 506 617 583 519 201 174 519 601 197 122 155
cat_boundaries=0 5 10 15 20 22 23 28
cat_threshold=11010074 4089416 1073774912 268436352 53760 352325888 2151678118 403839512 2181040170 306192404 4334085 100663296 2736791685 4734980 672206154 536905856 268439824 65536 135266304 17170432 134235232 276824064 848 0 134217744 263170 134217728 2176
is_linear=0
shrinkage=0.094037


Tree=23
num_leaves=31
num_cat=10
split_feature=45 15 20 11 20 68 20 4 20 6 27 2 20 27 72 21 75 79 20 46 22 79 6 49 49 79 21 44 26 23
split_gain=28.4543 40.1771 53.8718 36.4766 34.9307 36.6768 35.4627 15.1262 20.3974 14.3967 14.3757 15.309 12.9522 12.6502 11.8253 11.1111 10.0784 8.56714 7.49163 6.99759 6.50188 6.21054 5.37512 6.62442 5.92302 4.95018 4.37411 4.1303 4.43532 4.23063
threshold=1.0000000180025095e-35 1.0000000180025095e-35 0 1.0000000180025095e-35 1 1.0000000180025095e-35 2 3 4 5 0.25881904510252057 6 7 1.0000000180025095e-35 1.0000000180025095e-35 2012.5000000000002 1.0000000180025095e-35 6253.7766072482927 8 1.0000000180025095e-35 0.93301270189221952 878.15923290641524 9 2.5000000000000004 1.5000000000000002 5209.0777298887851 2021.5000000000002 1.0000000180025095e-35 0.98296291314453432 0.93301270189221952
decision_type=2 2 9 2 9 2 9 9 9 9 2 9 9 2 2 2 2 2 9 2 2 2 9 2 2 2 2 2 2 2
left_child=1 2 10 4 14 6 9 15 -9 17 19 -12 -7 -11 20 -8 26 -6 -14 27 22 -20 24 -24 -4 -18 -3 28 29 -1
right_child=-2 16 3 -5 5 12 7 8 -10 13 11 -13 18 -15 -16 -17 25 -19 21 -21 -22 -23 23 -25 -26 -27 -28 -29 -30 -31
leaf_value=-0.049753515813463683 0.055754686373161715 0.050870681967701885 -0.0029789108993417465 0.053266868541277802 0.040164009534014694 0.0091723229430652978 -0.0089083538178649016 0.0087902750484908383 -0.033903785668088625 -0.023374259469307584 0.021998311643144423 -0.020926882248138306 0.0030699070075390152 0.018017406891617703 -0.010654076451806403 0.031738404523877689 -0.010576000448784201 -0.0037429781036367456 0.0017105000392552763 0.0062744386407323632 -0.0049653083963156841 -0.049708129623068156 -0.015418825316916284 0.01607108453755823 0.045599640487791381 0.016139232053868489 0.0020047110148234152 0.0015081325937140084 0.0024049011461993444 0.00074237591284267198
leaf_weight=117.89357737451792 113.58108758181334 253.78428833931684 12.130921214818953 118.16327227652073 250.1834302842617 30.097654804587364 54.671948447823524 105.59651822596788 172.0997830927372 44.373406507074833 56.113481596112251 36.22243869304657 29.305469796061516 36.258508093655109 13.835333280265329 32.89856144040823 40.357173092663288 27.65572939068079 16.446075692772865 6.3001069426536551 12.14725439250469 114.49969586730003 20.256304211914539 33.181882038712502 247.98738889396191 24.642754465341568 25.149191029369831 12.768298663198946 8.2460688650608045 12.890991516411303
leaf_count=536 181 458 30 200 508 79 195 298 675 175 132 149 75 90 53 43 126 71 53 12 38 480 77 72 452 48 61 40 22 39
internal_value=0.0208132 0.0163876 0.00898938 0.0164064 0.00964256 -0.00084403 0.0093316 -0.0102919 -0.0196718 0.0269717 -0.0248732 0.00317481 -0.029983 -0.00480122 0.0313191 0.014028 0.0420047 0.035004 -0.0369027 -0.0373832 0.0358087 -0.0432727 0.0381577 0.00180593 0.0419566 0.00307788 0.0480575 -0.0408815 -0.0438235 -0.0465274
internal_weight=2079.74 1966.16 1622.22 1371.79 1253.63 914.087 723.738 365.267 277.696 358.471 250.435 92.3359 190.349 80.6319 339.539 87.5705 343.933 277.839 160.251 158.099 325.704 130.946 313.556 53.4382 260.118 64.9999 278.933 151.799 139.031 130.785
internal_count=5468 5287 4594 3664 3464 2742 2055 1211 973 844 930 281 687 265 722 238 693 579 608 649 669 533 631 149 482 174 519 637 597 575
cat_boundaries=0 5 10 15 16 21 22 23 28 32 33
cat_threshold=12320794 4089416 1073774912 268436352 577536 285217024 2151678117 403839512 2181040170 306192404 71442949 100663298 555753605 4734980 672337226 13 34816 272 2151679008 134217728 84148224 86 1 17504 276824064 4194304 0 512 134217728 134217728 17564672 134217729 624
is_linear=0
shrinkage=0.094037


Tree=24
num_leaves=31
num_cat=14
split_feature=67 45 20 6 20 20 4 5 20 20 78 68 6 21 20 2 30 79 20 26 21 21 49 26 78 9 44 9 9 79
split_gain=26.7322 36.4357 46.9108 30.564 46.8 31.0112 15.4322 14.067 15.1529 12.5769 10.3932 9.98971 12.3212 8.96773 10.5931 8.35078 6.50817 7.07682 6.38733 6.21027 5.53224 4.90552 4.46449 4.3226 4.03688 3.89349 4.01411 3.46878 3.20614 2.94064
threshold=1.0000000180025095e-35 1.0000000180025095e-35 0 1 2 3 4 5 6 7 8 1.0000000180025095e-35 9 2020.5000000000002 10 11 1.0000000180025095e-35 2232.5235338621428 12 -0.70710678118654735 2010.5000000000002 2007.5000000000002 5.5000000000000009 0.98296291314453432 13 1.0000000180025095e-35 1.0000000180025095e-35 1.0000000180025095e-35 1.0000000180025095e-35 997.53990628436452
decision_type=2 2 9 9 9 9 9 9 9 9 9 2 9 2 9 9 2 2 9 2 2 2 2 2 9 2 2 2 2 2
left_child=1 2 6 4 19 11 24 15 -9 -6 -8 12 21 14 -11 20 17 -10 -14 -4 -7 -5 -20 -16 -1 -13 -27 -26 -17 -23
right_child=-2 -3 3 5 9 7 10 8 16 13 -12 25 18 -15 23 28 -18 -19 22 -21 -22 29 -24 -25 27 26 -28 -29 -30 -31
leaf_value=0.018659415349303113 0.05148518572331106 0.053198147353592781 -0.0023200489191607531 -0.0070323951548881825 0.0089746785199293164 -0.0074763790605901501 0.0032635054080405114 -0.000339033130366888 0.012032081524901784 0.0045722340186431414 -0.038285793946625013 0.0053236227814946217 0.0072323966389717794 0.0017961281066916841 -0.05631558846167023 0.0066295647950092946 -0.0035604910160949976 0.047803502832411977 -0.029492764429759757 0.03724566887787422 0.024413716259840415 -0.002472011503739613 0.0060046222074085862 0.002061115858931119 0.0094193061877962028 -0.031722745589813153 0.004841132902954552 -0.015353392145408698 -0.018734272489210609 0.026316941347172829
leaf_weight=33.840956382453442 133.99236788600683 113.20836754143238 31.560846045613289 14.255287840962408 27.571297161281109 19.919529542326927 56.151346676051617 96.263615801930428 136.53600088506937 24.782059967517853 158.41912328079343 8.9557437598705274 44.733379818499088 33.648672662675381 108.43054034560919 8.6182854324579221 13.867640219628809 505.30577041208744 50.480409979820251 72.120486706495285 60.733645156025887 19.114427283406258 5.8798019438982001 5.1650877296924582 7.7109967023134223 43.436326399445534 6.1208506226539603 26.107660658657551 65.163608737289906 141.16264855861664
leaf_count=76 213 180 95 47 83 61 176 265 364 74 661 18 114 92 523 17 49 1050 202 135 107 51 10 14 13 171 11 116 208 272
internal_value=0.0195065 0.0150604 0.0102526 0.0166858 -0.00812259 0.0229074 -0.0202849 0.0312173 0.0361405 -0.0302412 -0.0298679 -0.00166663 0.00696286 -0.0375288 -0.0456132 0.00239926 0.0408195 0.0426613 -0.0125752 0.0283325 0.0158348 0.0184929 -0.0228248 -0.0514281 0.00979121 -0.021818 -0.0269953 -0.00643536 -0.0129542 0.0232347
internal_weight=2073.26 1939.26 1826.06 1543.83 303.279 1240.55 282.23 906.408 751.973 199.598 214.57 334.139 275.626 172.026 138.378 154.435 655.709 641.842 101.094 103.681 80.6532 174.532 56.3602 113.596 67.6596 58.5129 49.5572 33.8187 73.7819 160.277
internal_count=5468 5255 5075 4033 1016 3017 1042 2121 1728 786 837 896 696 703 611 393 1463 1414 326 230 168 370 212 537 205 200 182 129 225 323
cat_boundaries=0 5 6 11 16 17 18 23 28 29 30 35 36 41 42
cat_threshold=2155872336 3826496 3288367104 816841473 2658816 802 8224 2483029122 404750432 2285895680 268436736 671621152 2424308865 807403584 4997120 353373576 9 256 1049601 0 9216 33555460 65600 134217736 0 553660416 16384 16777224 2568 16 1049600 8388608 2562 128 1048576 1 0 0 2097152 4194304 17827840 1281
is_linear=0
shrinkage=0.094037


Tree=25
num_leaves=31
num_cat=7
split_feature=11 20 27 20 20 45 20 20 46 51 79 21 62 27 38 20 22 23 78 79 79 26 24 24 23 27 79 21 79 24
split_gain=26.4857 35.7772 24.5515 96.4464 55.9798 37.1761 36.4659 31.0096 20.3171 15.3072 14.1805 13.5791 13.0412 10.2776 9.16472 8.53406 8.24757 6.49474 6.159 5.55279 5.50925 5.30178 5.24188 4.46336 3.94847 3.91723 3.6239 3.08546 2.82278 2.41015
threshold=1.0000000180025095e-35 0 1.0000000180025095e-35 1 2 1.0000000180025095e-35 3 4 1.0000000180025095e-35 1.0000000180025095e-35 839.49865296803193 2020.5000000000002 1.0000000180025095e-35 -0.78656609248549325 1.0000000180025095e-35 5 -0.93301270189221908 0.93301270189221952 6 2381.7063975317874 1283.5835511057523 -0.9159756150367534 0.87837969732492682 1.0000000180025095e-35 0.25000000000000017 -0.12940952255126034 5808.8881064635943 2010.5000000000002 779.86140627355792 -0.60785761079279388
decision_type=2 9 2 9 9 2 9 9 2 2 2 2 2 2 2 9 2 2 9 2 2 2 2 2 2 2 2 2 2 2
left_child=1 14 3 22 9 6 13 12 10 -4 -8 15 21 19 16 27 -1 -12 -15 -5 -11 -6 29 28 -13 -16 -21 -9 -23 -3
right_child=-2 2 4 5 7 -7 8 11 -10 20 17 24 -14 18 25 -17 -18 -19 -20 26 -22 23 -24 -25 -26 -27 -28 -29 -30 -31
leaf_value=-0.0022514815354184917 0.047906954249569172 0.0057534541207491944 -0.0048681883051243519 -0.0072824808548440003 -0.0054329550073257838 0.024900060731322185 0.0035479345433850036 -0.010799670269894642 0.012281481285111757 -0.0025214880575050906 -0.06646707713347566 0.017241335877503587 -0.013825783536896633 0.0074847517035307592 0.011068581935175858 -0.038671010746758328 0.043864779455798732 -0.0038067689303271134 -0.022704492954183433 0.029058137190353411 0.05315896552145271 -0.0020428963450838857 0.00037724999838636497 0.00072710989344691398 -0.0092621879125052188 -0.01305652051873326 -0.0048030221765789465 0.010461267509570502 0.0386335137686208 0.042637671377215004
leaf_weight=27.875912234187126 159.92216930538416 50.901337802410126 32.199601627886295 21.225705347955227 12.488279722630976 38.375177823007107 20.879474997520447 18.556777596473694 8.6242110133171064 7.9920431002974501 230.03295800089836 38.845472924411297 28.428814850747585 35.103138364851475 37.12333195656538 145.26844594627619 323.05493658781052 27.5484554246068 71.538430221378803 51.056426666676998 236.19862611591816 6.6584859043359748 37.805075995624065 40.633759066462517 8.311794236302374 18.05112998187542 6.1122025474905959 41.535396829247475 113.1614053696394 172.47390481084585
leaf_count=70 295 136 96 76 44 68 64 73 12 27 1006 85 107 93 77 558 598 84 271 114 444 19 110 107 32 59 24 108 218 393
internal_value=0.0181884 0.0136041 0.00578178 -0.00564634 0.0172072 -0.0278039 -0.035949 -0.00439976 -0.0519781 0.0438445 -0.0579306 -0.0226618 0.0184204 -0.000182439 0.0352872 -0.0314793 0.0404953 -0.0625356 -0.0146698 0.0167916 0.051145 0.0273805 0.0334568 0.0309851 0.00953255 -5.48379e-05 0.0247078 0.00125019 0.0364677 0.0383695
internal_weight=2067.98 1908.06 1501.96 771.676 730.279 510.496 472.121 453.889 287.085 276.39 278.461 252.518 201.371 185.036 406.105 205.361 350.931 257.581 106.642 78.3943 244.191 172.942 261.18 160.454 47.1573 55.1745 57.1686 60.0922 119.82 223.375
internal_count=5468 5173 4369 2451 1918 1812 1744 1351 1166 567 1154 856 495 578 804 739 668 1090 364 214 471 388 639 344 117 136 138 181 237 529
cat_boundaries=0 5 10 15 20 25 30 31
cat_threshold=2566919680 19497 152440857 2193621026 33554434 4374789 2181038210 36128 3147784 893452816 606085130 7340544 2455764994 537396097 1181952 1572896 1275330820 570434244 134742020 145532108 9570368 293609488 603988484 402670612 566289 4194432 100925826 288 2097152 8388800 3328
is_linear=0
shrinkage=0.094037


Tree=26
num_leaves=31
num_cat=9
split_feature=67 45 20 11 20 16 20 20 4 34 43 20 79 23 20 26 23 38 36 3 9 24 21 21 49 20 62 25 79 26
split_gain=24.6855 33.0466 37.0514 27.6704 28.4474 31.9804 50.5883 30.6657 20.8226 11.8268 17.9718 11.1081 9.40727 8.70139 11.2779 7.52178 7.2907 6.8062 6.21804 5.52105 6.73282 5.11035 4.90324 5.60764 10.5772 4.83463 2.49679 2.23093 1.88519 1.78795
threshold=1.0000000180025095e-35 1.0000000180025095e-35 0 1.0000000180025095e-35 1 1.0000000180025095e-35 2 3 4 1.0000000180025095e-35 1.0000000180025095e-35 5 1912.4193971834031 0.93301270189221952 6 0.98296291314453432 -0.5 1.0000000180025095e-35 1.0000000180025095e-35 7 1.0000000180025095e-35 0.87837969732492682 2022.5000000000002 2014.5000000000002 2.5000000000000004 8 1.0000000180025095e-35 1.0000000180025095e-35 5841.4430898203291 0.60355339059327384
decision_type=2 2 9 2 9 2 9 9 9 2 2 9 2 2 9 2 2 2 2 9 2 2 2 2 2 9 2 2 2 2
left_child=1 2 9 4 17 7 16 18 12 10 15 -10 -9 14 -8 19 28 22 21 -1 -21 -6 23 24 -4 -22 -18 -11 -7 -15
right_child=-2 -3 3 -5 5 6 13 8 11 27 -12 -13 -14 29 -16 -17 26 -19 -20 20 25 -23 -24 -25 -26 -27 -28 -29 -30 -31
leaf_value=0.0018280514773016481 0.047587876830861395 0.049098440292478486 -0.0097877803303570831 0.046371221205753953 0.039961824190682622 0.0040177267162833522 -7.2561861957553248e-06 -0.011427077162243409 0.0056835773318197579 0.014303185118999983 0.015039515486873892 -0.034046597340958447 0.02366661760319469 -0.0067369973457986117 -0.051206522161277745 0.0072359076934200989 0.031121864344810367 -0.001013220462831081 -0.0022836798708831948 -0.00049473490170050911 0.00054031471524521436 -0.0011182371832360062 -0.0037824439911428023 0.04616326966223188 0.025279765190604368 -0.050859109094613393 0.001514687191021697 -0.0050576213678406243 -0.013587127595865783 0.011091803687450391
leaf_weight=29.845178246498108 133.00182649493217 112.68695263564587 69.184278793632984 124.13845220953226 214.20262332260609 50.241562619805336 54.198365338146687 33.251040615141392 58.307937920093536 46.988878253847361 28.321269482374191 110.23846038430929 125.15327306836843 13.532784156501295 172.48170716315508 8.0278119444847089 74.513123147189617 52.499615475535393 29.041146002709866 32.715350203216076 24.918146565556526 23.945577226579189 12.406669065356253 141.65505369007587 79.432146206498146 122.30333240702748 41.295346029102802 25.866325207054615 8.1740454733371717 9.4774481654167158
leaf_count=91 213 180 205 211 417 141 165 110 151 140 69 436 289 48 696 16 148 139 80 98 80 64 34 234 174 570 117 97 38 17
internal_value=0.0170636 0.0128841 0.00837391 0.0145166 0.00899957 0.00015668 -0.0175389 0.0134447 -0.00608208 -0.0171854 -0.0255133 -0.023345 0.0142379 -0.0387939 -0.0441127 -0.0336911 0.0166381 0.0284505 0.0320466 -0.0369884 -0.0404457 0.036672 0.0333248 0.0354403 0.0114579 -0.0474033 0.0259156 0.00844393 -0.00525529 0.00360618
internal_weight=2062.05 1929.04 1816.36 1497.37 1373.23 1018.05 423.914 594.14 326.951 318.986 246.131 168.546 158.404 249.69 226.68 217.81 174.224 355.178 267.189 209.782 179.937 238.148 302.678 290.271 148.616 147.221 115.808 72.8552 58.4156 23.0102
internal_count=5468 5255 5075 3914 3703 2917 1370 1547 986 1161 924 587 399 926 861 855 444 786 561 839 748 481 647 613 379 650 265 237 179 65
cat_boundaries=0 5 10 15 20 21 26 31 32 37
cat_threshold=2155872336 3826497 1140883520 816841473 17338880 337646088 2092 135663928 2151680042 33554708 134366466 134480914 33557126 167772292 281018496 557842437 2218786946 2975868928 33554432 134425674 3 1048576 33554432 1536 134217728 276824065 1572864 46137344 8192 0 605029377 48 2147483712 256 0 513 32768
is_linear=0
shrinkage=0.094037


Tree=27
num_leaves=31
num_cat=11
split_feature=67 45 20 9 20 44 4 20 51 4 20 78 23 20 6 37 68 25 21 78 79 79 64 21 21 79 22 26 26 4
split_gain=22.0698 29.8527 33.3697 23.6581 32.1756 27.5498 17.2341 55.3661 23.8717 12.0178 10.9742 9.5359 7.9389 7.9284 9.31627 7.412 5.93437 5.91508 5.83437 5.64131 5.03377 4.77588 4.33397 4.11155 3.818 3.41686 4.66791 3.30665 3.01029 2.75996
threshold=1.0000000180025095e-35 1.0000000180025095e-35 0 1.0000000180025095e-35 1 1.0000000180025095e-35 2 3 1.0000000180025095e-35 4 5 6 -0.68301270189221952 7 8 1.0000000180025095e-35 1.0000000180025095e-35 0.81174490092936691 2021.5000000000002 9 5966.1638334278841 839.49865296803193 1.0000000180025095e-35 2012.5000000000002 2017.5000000000002 839.49865296803193 -0.93301270189221908 0.98296291314453432 0.12940952255126043 10
decision_type=2 2 9 2 9 2 9 9 2 9 9 9 2 9 9 2 2 2 2 9 2 2 2 2 2 2 2 2 2 9
left_child=1 2 9 12 5 15 7 16 19 28 20 23 -4 -10 -15 22 17 -6 -12 -8 -9 -13 29 -11 -18 -14 -27 -23 -1 -5
right_child=-2 -3 3 4 6 -7 8 10 13 11 18 21 25 14 -16 -17 24 -19 -20 -21 -22 27 -24 -25 -26 26 -28 -29 -30 -31
leaf_value=-0.0042745383845049683 0.045079199506741566 0.046660483958374327 0.0018410298231720916 -0.002866047368189701 0.039995823943916389 0.026833222460458363 0.0077691330257520811 0.012031004094220928 0.049730814051227458 -0.011789115088814788 -0.038594417241726207 0.0047801015898977549 -0.00046334320964135133 -0.010072652797213226 0.021415430474123736 0.0018484973789402053 0.011093297698641388 -0.0030173118920069704 0.0035147666925881447 -0.021553058870600411 -0.014152901543040648 -0.037006617758390072 0.0042310139083579336 0.01288446766908642 -0.012837959217551678 0.00014796176684276531 0.050508898901768469 0.0028259750717843854 0.017668961708768683 -0.038814339377679911
leaf_weight=47.574299640953541 132.36231464892626 112.262042067945 55.243714034557343 50.949488192796707 160.8607969135046 30.200020648539066 34.69972813129425 76.73959306627512 145.28486829996109 12.818248882889746 152.06745479628444 6.8893146365880957 12.380753979086874 49.883981995284557 193.72930329293013 55.375110529363155 40.900171920657158 17.997719466686249 16.610990777611732 35.327525496482849 15.101596072316168 176.60790208354592 7.1033417135477057 55.444601900875568 13.811617493629454 18.112384006381035 135.61434384435415 6.4205017760395995 33.998039051890373 153.00051189959049
leaf_count=163 213 180 146 160 332 46 85 191 243 66 609 15 34 182 418 163 98 52 46 126 57 707 17 137 50 42 225 14 74 577
internal_value=0.016172 0.0122107 0.0079175 0.0139623 0.00761576 -0.0159642 0.0157183 0.00230318 0.0271112 -0.0156097 -0.0235199 -0.0236725 0.0374614 0.0355714 0.0138964 -0.0269122 0.0294977 0.0361135 -0.0333911 -0.0117154 0.00264818 -0.0314781 -0.0327259 0.00389665 0.000786404 0.0444221 0.0468554 -0.0351307 0.00888243 -0.0349296
internal_weight=2055.37 1923.01 1810.75 1471 1249.64 296.628 953.015 494.09 458.925 339.753 260.52 258.181 221.351 388.898 243.613 266.428 233.57 178.859 168.678 70.0273 91.8412 189.918 211.053 68.2629 54.7118 166.107 153.727 183.028 81.5723 203.95
internal_count=5468 5255 5075 3899 3452 963 2489 1435 1054 1176 903 939 447 843 600 917 532 384 655 211 248 736 754 203 148 301 267 721 237 737
cat_boundaries=0 5 10 11 16 17 22 23 28 29 30 31
cat_threshold=2155872336 3826497 3288367104 814744321 563712 540450945 1384120320 20981250 2360336 755368072 176 20772 201327652 671484001 2151677962 314573843 9 470286336 262152 260 1242038272 73728 2568 352322056 4194434 305398144 2147500032 320 518 21764 161
is_linear=0
shrinkage=0.094037


Tree=28
num_leaves=31
num_cat=8
split_feature=11 20 68 20 20 22 20 20 26 12 21 25 38 45 22 27 44 20 26 20 21 20 79 27 26 27 79 79 49 79
split_gain=20.6314 28.9232 21.1218 37.1704 28.3484 20.4153 45.2356 40.3483 16.0149 14.6001 10.9747 10.2098 9.50253 9.10743 8.48381 8.22796 8.12885 11.4508 10.551 7.93414 5.15471 4.70722 5.19902 3.89176 3.68551 3.28933 3.19817 2.38515 2.57053 2.34704
threshold=1.0000000180025095e-35 0 1.0000000180025095e-35 1 2 0.25000000000000006 3 4 -0.9159756150367534 1.0000000180025095e-35 2009.5000000000002 -0.56174490092936669 1.0000000180025095e-35 1.0000000180025095e-35 -0.6830127018922193 0.98296291314453432 1.0000000180025095e-35 5 -0.9829629131445341 6 2009.5000000000002 7 839.49865296803193 -0.60355339059327384 1.0000000180025095e-35 -0.12940952255126034 3268.2580190416197 734.07934917404793 1.5000000000000002 6453.0204564484311
decision_type=2 9 2 9 9 2 9 9 2 2 2 2 2 2 2 2 2 9 2 9 2 9 2 2 2 2 2 2 2 2
left_child=1 12 4 11 8 7 29 10 26 13 -6 -4 14 15 23 21 17 20 -19 -8 -9 -5 -23 -1 -13 -14 -3 -12 -29 -7
right_child=-2 2 3 9 5 6 19 16 -10 -11 27 24 25 -15 -16 -17 -18 18 -20 -21 -22 22 -24 -25 -26 -27 -28 28 -30 -31
leaf_value=-0.010250652073378488 0.041581584597996622 0.0076961923395794567 0.036530336074496371 0.00018186938917101009 -0.0029656266397135515 0.026357109880363588 0.0029304712625211333 -0.01248964077610094 0.036986036721915846 0.011977950061666142 2.086464219042526e-05 -0.014874824259137373 0.0088297229302326721 0.0054754599389152687 0.042307709427950604 0.0058399217725215273 0.013628037732116783 0.0092004413402591197 -0.035596085840832896 -0.043324655164678351 0.014731629241992179 0.002424276812318799 -0.057532546765384454 0.012802646461008029 0.0088533356791375105 -0.013329010271622678 -0.016033920559483269 0.00095325267420733875 0.041459899430822664 -0.0029628826506257842
leaf_weight=22.796062968671322 158.22765965759754 13.973886735737322 38.430578581988811 25.108065478503704 56.961029022932053 88.124838791787624 31.958327166736126 13.82461319118738 283.27997776120901 12.492590524256228 14.459150888025759 28.19903302192688 38.264303542673588 14.008955292403696 268.89303912967443 6.4136320725083342 14.642664976418017 17.548136778175831 154.43009100109339 163.92842267453671 73.902167029678822 5.894345484673976 127.2407487295568 71.613468214869499 28.462995953857899 18.099434562027454 32.717950843274593 19.180908992886543 197.68780474364758 8.0504485815763456
leaf_count=68 295 32 70 69 181 201 104 71 617 25 40 110 83 29 491 13 22 47 613 642 196 19 579 149 72 60 107 41 395 27
internal_value=0.0153679 0.0113423 0.00420308 -0.0155982 0.00980145 -0.000195069 -0.0173865 0.0099175 0.0293904 -0.0339263 0.0299236 0.0205248 0.0304241 -0.0413733 0.0355553 -0.0458938 -0.0137845 -0.0188875 -0.0283368 -0.0373609 0.00591135 -0.0493687 -0.0526364 0.00492176 -0.0048545 -0.00214206 -0.0085375 0.0374841 0.0392305 0.0224616
internal_weight=2048.82 1890.59 1470.92 286.251 1184.67 854.699 292.062 562.637 329.972 191.158 288.289 95.0926 419.666 178.666 363.303 164.657 274.348 259.705 171.978 195.887 87.7268 158.243 133.135 94.4095 56.662 56.3637 46.6918 231.328 216.869 96.1753
internal_count=5468 5173 4322 986 3336 2580 974 1606 756 734 657 252 851 709 708 680 949 927 660 746 267 667 598 217 182 143 139 476 436 228
cat_boundaries=0 5 10 15 20 25 30 35 40
cat_threshold=2569016832 19497 152440857 2193621026 33554438 1065323 402653696 4195584 268437504 557851264 71442449 2234384386 2449514656 525196 573696 536870912 34603008 73401350 2097169 268501576 9437186 281018772 536871744 940589056 538053648 537444460 1107296768 1073741824 1024 327681 268 8192 1073743872 2048 16777344 0 4194448 524290 0 268435456
is_linear=0
shrinkage=0.094037


Tree=29
num_leaves=31
num_cat=10
split_feature=67 45 9 20 68 20 20 6 43 22 20 78 26 44 49 24 20 4 79 20 6 22 21 23 79 22 79 23 79 22
split_gain=20.1097 26.7206 27.8365 44.4045 22.4849 28.4159 28.3233 27.4223 17.5025 17.091 15.0408 14.8936 13.0885 9.96159 9.77737 8.67643 8.18604 6.51418 6.3033 6.65873 5.89312 7.33667 5.55465 4.70032 4.60225 3.54854 3.83009 4.66062 3.18653 3.07431
threshold=1.0000000180025095e-35 1.0000000180025095e-35 1.0000000180025095e-35 0 1.0000000180025095e-35 1 2 3 1.0000000180025095e-35 0.25000000000000006 4 5 -0.25881904510252113 1.0000000180025095e-35 1.5000000000000002 0.87837969732492682 6 7 1773.0975699775738 8 9 0.93301270189221952 2022.5000000000002 0.93301270189221952 899.11997493269166 -0.93301270189221908 839.49865296803193 -0.68301270189221952 396.95622332236968 1.0000000180025095e-35
decision_type=2 2 2 9 2 9 9 9 2 2 9 9 2 2 2 2 9 9 2 9 9 2 2 2 2 2 2 2 2 2
left_child=1 2 14 8 6 -6 15 9 13 11 -9 -8 -11 20 29 22 -12 -7 -19 -20 -4 23 24 -22 -5 -16 28 -28 -27 -1
right_child=-2 -3 3 4 5 17 7 10 -10 12 16 -13 -14 -15 25 -17 -18 18 19 -21 21 -23 -24 -25 -26 26 27 -29 -30 -31
leaf_value=-0.014017574017650863 0.041959303286286949 0.043299648265475013 0.0011888408336665462 -0.0034394130853022983 0.022771877682398294 0.0034439541306467685 -0.0037206616324800728 0.013561463369262245 0.013653840066881697 -0.026533385962292228 0.005048285506501827 0.03445745600294764 0.012048296395061083 0.0074287631018871867 -0.00097686478426210928 -0.0034639895889619597 -0.038104189779000402 0.0021243468781573598 0.0027186205879477956 -0.04312277352794102 -0.053067555011983757 0.0021253849516892471 -0.0040866848949969569 -0.00024035362663392073 0.04148707174173609 0.011188530929962522 0.0048827917278215409 0.047091782846227982 -0.012575639702975216 0.0080613788196338843
leaf_weight=15.478571772575377 131.09075158089399 111.27026361227036 31.514875192195177 7.0903168097138396 65.428509503602982 40.706418171525002 109.09436782449484 28.269866578280926 25.852464009076357 65.850501127541065 28.114249385893345 208.52660523355007 76.253647081553936 14.455327063798903 16.77506011351943 34.020629316568375 126.27898648753762 28.802645534276962 27.603894002735615 115.79630526900291 153.23564083129168 18.44647940248251 9.9002274572849256 16.75231946259737 297.55095492303371 8.8057222068309766 51.59102700650692 140.49743931740522 6.7876699343323699 30.584004484117031
leaf_count=54 213 180 113 23 131 127 332 68 62 237 80 415 185 33 43 94 537 91 73 469 685 53 28 51 598 13 139 244 32 65
internal_value=0.0144368 0.0107049 0.00667841 0.00105911 0.00872795 -0.012094 0.0151887 0.00198478 -0.0282862 0.0138037 -0.0220413 0.0242075 -0.00923614 -0.0363266 0.0301047 0.0332185 -0.0313654 -0.0263355 -0.0320358 -0.0384029 -0.0405472 -0.0440957 0.0378886 -0.0497768 0.0398853 0.0361247 0.0385004 0.0410157 -0.00106435 -0.00375805
internal_weight=2042.43 1911.33 1800.06 1529.55 1269.29 278.338 990.95 642.388 260.257 459.725 182.663 317.621 142.104 234.405 270.519 348.562 154.393 212.909 172.203 143.4 219.949 188.434 314.541 169.988 304.641 224.457 207.682 192.088 15.5934 46.0626
internal_count=5468 5255 5075 4485 3488 891 2597 1854 997 1169 685 747 422 935 590 743 617 760 633 542 902 789 649 736 621 471 428 383 45 119
cat_boundaries=0 5 10 15 16 21 22 26 27 32 33
cat_threshold=547364864 1385325312 1145046018 547357969 17302144 134239522 40 524552 2048 4194308 352322048 2214855686 974520740 2151677994 1115457 212 8 0 2147483712 134758400 8192 13636 131136 2097153 2105856 132 65 1048640 138413056 16777216 4 3 290
is_linear=0
shrinkage=0.094037


Tree=30
num_leaves=31
num_cat=13
split_feature=21 49 20 20 20 6 20 27 33 20 6 6 22 20 28 2 32 20 26 27 37 78 61 9 30 7 79 78 62 23
split_gain=19.2897 49.1582 64.9331 32.5625 23.843 21.1615 20.353 13.6052 11.9853 14.5378 7.8235 7.34864 7.14648 6.75863 6.33992 5.75515 5.5892 5.01686 4.90433 4.31492 3.88027 3.69352 3.61159 3.52764 3.15219 2.70426 2.89242 2.33723 2.3348 2.20885
threshold=2012.5000000000002 2.5000000000000004 0 1 2 3 4 0.96592582628906831 1.0000000180025095e-35 5 6 7 -0.93301270189221908 8 1.0000000180025095e-35 9 1.0000000180025095e-35 10 0.91597561503675362 0.78656609248549303 1.0000000180025095e-35 11 1.0000000180025095e-35 1.0000000180025095e-35 1.0000000180025095e-35 1.0000000180025095e-35 7071.3965427806843 12 1.0000000180025095e-35 0.6830127018922193
decision_type=2 2 9 9 9 9 9 2 2 9 9 9 2 9 2 9 2 9 2 2 2 9 2 2 2 2 2 9 2 2
left_child=1 2 -1 11 20 12 -4 13 9 28 27 15 -6 -8 16 -2 22 -13 -7 -14 -3 -18 24 -17 -11 -25 -27 -10 -5 -21
right_child=3 4 6 8 5 18 7 -9 10 14 -12 17 19 -15 -16 23 21 -19 -20 29 -22 -23 -24 25 -26 26 -28 -29 -30 -31
leaf_value=0.027239765047708437 0.014929334665825663 0.050332625669388537 0.0040982324531719429 0.005746457618860802 -0.0099817159688310106 -0.027026901657230453 0.000647449700393431 0.0061326204033957839 -0.0021941109490229683 0.043293840964240972 -0.013356234686754153 0.0045945290418307784 0.02626966967397585 -0.064716385673398727 -0.005005429776291679 0.0079935376404796001 -0.0054638919822097391 -0.028493905106830128 0.0064686412872497637 -0.011501443839507903 -2.2905541896702566e-06 0.016448176100328959 4.2364312970399931e-05 0.0045185650735099381 0.00025617501650377944 -0.026121895464360789 0.0043652607405553195 0.018574312684785911 -0.011649917037413859 0.0080718888058904526
